/* Generated by Edge Impulse
 *
 * Permission is hereby granted, free of charge, to any person obtaining a copy
 * of this software and associated documentation files (the "Software"), to deal
 * in the Software without restriction, including without limitation the rights
 * to use, copy, modify, merge, publish, distribute, sublicense, and/or sell
 * copies of the Software, and to permit persons to whom the Software is
 * furnished to do so, subject to the following conditions:
 *
 * The above copyright notice and this permission notice shall be included in
 * all copies or substantial portions of the Software.
 *
 * THE SOFTWARE IS PROVIDED "AS IS", WITHOUT WARRANTY OF ANY KIND, EXPRESS OR
 * IMPLIED, INCLUDING BUT NOT LIMITED TO THE WARRANTIES OF MERCHANTABILITY,
 * FITNESS FOR A PARTICULAR PURPOSE AND NONINFRINGEMENT. IN NO EVENT SHALL THE
 * AUTHORS OR COPYRIGHT HOLDERS BE LIABLE FOR ANY CLAIM, DAMAGES OR OTHER
 * LIABILITY, WHETHER IN AN ACTION OF CONTRACT, TORT OR OTHERWISE, ARISING FROM,
 * OUT OF OR IN CONNECTION WITH THE SOFTWARE OR THE USE OR OTHER DEALINGS IN THE
 * SOFTWARE.
 */
// Generated on: 25.03.2022 16:23:32

#include <stdio.h>
#include <stdlib.h>
#include <vector>
#include "edge-impulse-sdk/tensorflow/lite/c/builtin_op_data.h"
#include "edge-impulse-sdk/tensorflow/lite/c/common.h"
#include "edge-impulse-sdk/tensorflow/lite/micro/micro_mutable_op_resolver.h"
#include "edge-impulse-sdk/porting/ei_classifier_porting.h"

#if EI_CLASSIFIER_PRINT_STATE
#if defined(__cplusplus) && EI_C_LINKAGE == 1
extern "C" {
    extern void ei_printf(const char *format, ...);
}
#else
extern void ei_printf(const char *format, ...);
#endif
#endif

#if defined __GNUC__
#define ALIGN(X) __attribute__((aligned(X)))
#elif defined _MSC_VER
#define ALIGN(X) __declspec(align(X))
#elif defined __TASKING__
#define ALIGN(X) __align(X)
#endif

using namespace tflite;
using namespace tflite::ops;
using namespace tflite::ops::micro;

namespace {

constexpr int kTensorArenaSize = 100352;

#if defined(EI_CLASSIFIER_ALLOCATION_STATIC)
uint8_t tensor_arena[kTensorArenaSize] ALIGN(16);
#elif defined(EI_CLASSIFIER_ALLOCATION_STATIC_HIMAX)
#pragma Bss(".tensor_arena")
uint8_t tensor_arena[kTensorArenaSize] ALIGN(16);
#pragma Bss()
#elif defined(EI_CLASSIFIER_ALLOCATION_STATIC_HIMAX_GNU)
uint8_t tensor_arena[kTensorArenaSize] ALIGN(16) __attribute__((section(".tensor_arena")));
#else
#define EI_CLASSIFIER_ALLOCATION_HEAP 1
uint8_t* tensor_arena = NULL;
#endif

static uint8_t* tensor_boundary;
static uint8_t* current_location;

template <int SZ, class T> struct TfArray {
  int sz; T elem[SZ];
};
enum used_operators_e {
  OP_CONV_2D, OP_DEPTHWISE_CONV_2D, OP_ADD, OP_PAD, OP_FULLY_CONNECTED, OP_RESHAPE, OP_SOFTMAX,  OP_LAST
};
struct TensorInfo_t { // subset of TfLiteTensor used for initialization from constant memory
  TfLiteAllocationType allocation_type;
  TfLiteType type;
  void* data;
  TfLiteIntArray* dims;
  size_t bytes;
  TfLiteQuantization quantization;
};
struct NodeInfo_t { // subset of TfLiteNode used for initialization from constant memory
  struct TfLiteIntArray* inputs;
  struct TfLiteIntArray* outputs;
  void* builtin_data;
  used_operators_e used_op_index;
};

TfLiteContext ctx{};
TfLiteTensor tflTensors[184];
TfLiteEvalTensor tflEvalTensors[184];
TfLiteRegistration registrations[OP_LAST];
TfLiteNode tflNodes[72];

const TfArray<4, int> tensor_dimension0 = { 4, { 1,48,48,3 } };
const TfArray<1, float> quant0_scale = { 1, { 0.0039215688593685627, } };
const TfArray<1, int> quant0_zero = { 1, { -128 } };
const TfLiteAffineQuantization quant0 = { (TfLiteFloatArray*)&quant0_scale, (TfLiteIntArray*)&quant0_zero, 0 };
const ALIGN(16) int32_t tensor_data1[4*2] = { 
  0, 0, 
  0, 1, 
  0, 1, 
  0, 0, 
};
const TfArray<2, int> tensor_dimension1 = { 2, { 4,2 } };
const ALIGN(16) int32_t tensor_data2[4*2] = { 
  0, 0, 
  1, 1, 
  1, 1, 
  0, 0, 
};
const TfArray<2, int> tensor_dimension2 = { 2, { 4,2 } };
const ALIGN(8) int32_t tensor_data3[2] = { -1, 32, };
const TfArray<1, int> tensor_dimension3 = { 1, { 2 } };
const ALIGN(16) int8_t tensor_data4[8*3*3*3] = { 
  /* [0][0][][] */ 40,113,28, 51,127,38, 19,14,8, 
  /* [0][1][][] */ -2,-13,-8, -3,-19,-5, -1,-3,0, 
  /* [0][2][][] */ -43,-93,-21, -45,-112,-25, -12,-21,-10, 
  /* [1][0][][] */ 51,107,46, -8,-10,-7, -47,-88,-50, 
  /* [1][1][][] */ 77,127,59, -3,-21,1, -64,-114,-55, 
  /* [1][2][][] */ 34,23,19, -2,3,8, -38,-28,-16, 
  /* [2][0][][] */ -41,68,-27, -48,64,-39, -10,26,-17, 
  /* [2][1][][] */ -26,122,-58, -23,127,-88, 4,17,-10, 
  /* [2][2][][] */ -27,62,-46, -40,72,-48, -23,49,-25, 
  /* [3][0][][] */ 76,-30,-56, 94,-22,-85, 35,-16,-27, 
  /* [3][1][][] */ 76,-9,-75, 99,6,-127, 31,-22,-29, 
  /* [3][2][][] */ 30,-25,-3, 34,-15,-25, 7,-21,23, 
  /* [4][0][][] */ 26,-47,3, 43,-61,2, 8,-21,6, 
  /* [4][1][][] */ 90,-25,-10, 127,-34,-16, 22,-8,6, 
  /* [4][2][][] */ 21,-33,3, 43,-44,2, 13,-17,4, 
  /* [5][0][][] */ 27,39,1, -46,-100,-14, 12,18,-6, 
  /* [5][1][][] */ 35,53,-2, -56,-127,-20, 10,26,-4, 
  /* [5][2][][] */ 6,7,-2, -26,-24,-5, -3,8,0, 
  /* [6][0][][] */ 12,-39,25, 23,-58,37, 23,-53,34, 
  /* [6][1][][] */ 20,-66,48, 52,-127,80, 41,-90,49, 
  /* [6][2][][] */ 20,-23,3, 41,-71,33, 23,-38,14, 
  /* [7][0][][] */ -4,-67,-17, -10,-65,-14, 3,-1,-5, 
  /* [7][1][][] */ 28,122,19, 27,127,25, 4,-3,2, 
  /* [7][2][][] */ -20,-56,-5, -28,-53,-6, 1,-3,0, 
};
const TfArray<4, int> tensor_dimension4 = { 4, { 8,3,3,3 } };
const TfArray<8, float> quant4_scale = { 8, { 0.017453176900744438, 0.010256853885948658, 0.0049775401130318642, 0.0024131895042955875, 0.0030190616380423307, 0.0017023519612848759, 0.012964372523128986, 0.029917076230049133, } };
const TfArray<8, int> quant4_zero = { 8, { 0,0,0,0,0,0,0,0 } };
const TfLiteAffineQuantization quant4 = { (TfLiteFloatArray*)&quant4_scale, (TfLiteIntArray*)&quant4_zero, 0 };
const ALIGN(16) int32_t tensor_data5[8] = { 28187, 44341, 6346, 91975, 29957, 84251, 17733, -777, };
const TfArray<1, int> tensor_dimension5 = { 1, { 8 } };
const TfArray<8, float> quant5_scale = { 8, { 6.8443834607023746e-05, 4.0222959796665236e-05, 1.9519766283337958e-05, 9.4634888228029013e-06, 1.183945823868271e-05, 6.6758902903529815e-06, 5.0840681069530547e-05, 0.00011732187704183161, } };
const TfArray<8, int> quant5_zero = { 8, { 0,0,0,0,0,0,0,0 } };
const TfLiteAffineQuantization quant5 = { (TfLiteFloatArray*)&quant5_scale, (TfLiteIntArray*)&quant5_zero, 0 };
const ALIGN(16) int8_t tensor_data6[1*3*3*8] = { 
  /* [0][0][][] */ 0,-1,7,-18,13,1,15,-9, 127,-11,29,41,19,-5,-13,127, -5,1,3,-12,9,1,19,0, 
  /* [0][1][][] */ -2,75,36,48,15,127,18,-8, -35,127,-127,-127,-127,-89,-127,0, 1,-18,51,44,24,-27,16,1, 
  /* [0][2][][] */ 0,1,-2,-14,13,-3,25,-4, 4,-16,-8,-45,26,-1,-15,-20, 0,9,-7,-13,10,2,18,-6, 
};
const TfArray<4, int> tensor_dimension6 = { 4, { 1,3,3,8 } };
const TfArray<8, float> quant6_scale = { 8, { 0.005186338908970356, 0.0063708256930112839, 0.022887788712978363, 0.01245578657835722, 0.092743851244449615, 0.065874278545379639, 0.0189167819917202, 0.0054054036736488342, } };
const TfArray<8, int> quant6_zero = { 8, { 0,0,0,0,0,0,0,0 } };
const TfLiteAffineQuantization quant6 = { (TfLiteFloatArray*)&quant6_scale, (TfLiteIntArray*)&quant6_zero, 3 };
const ALIGN(16) int32_t tensor_data7[8] = { -351, -9806, 1764, 5399, 1302, 852, 1101, 1387, };
const TfArray<1, int> tensor_dimension7 = { 1, { 8 } };
const TfArray<8, float> quant7_scale = { 8, { 0.00012203150254208595, 0.00014990178169682622, 0.00053853623103350401, 0.00029307734803296626, 0.0021822082344442606, 0.0015499830478802323, 0.00044510076986625791, 0.00012718596553895622, } };
const TfArray<8, int> quant7_zero = { 8, { 0,0,0,0,0,0,0,0 } };
const TfLiteAffineQuantization quant7 = { (TfLiteFloatArray*)&quant7_scale, (TfLiteIntArray*)&quant7_zero, 0 };
const ALIGN(16) int8_t tensor_data8[8*1*1*8] = { 
  /* [0][0][][] */ 127,-77,-15,9,-124,-49,2,124, 
  /* [1][0][][] */ -23,127,-39,2,-16,0,4,-10, 
  /* [2][0][][] */ 127,51,-80,-19,115,74,52,78, 
  /* [3][0][][] */ 22,31,-18,-43,-46,-127,-1,19, 
  /* [4][0][][] */ -9,-44,0,-39,-38,127,-7,0, 
  /* [5][0][][] */ 127,58,43,-18,116,58,-13,71, 
  /* [6][0][][] */ -68,-2,81,-127,83,-116,73,-58, 
  /* [7][0][][] */ 121,-51,-18,16,-79,-70,-8,127, 
};
const TfArray<4, int> tensor_dimension8 = { 4, { 8,1,1,8 } };
const TfArray<8, float> quant8_scale = { 8, { 0.0052424180321395397, 0.0056282053701579571, 0.0067982450127601624, 0.013491302728652954, 0.015097745694220066, 0.010346394032239914, 0.0081832036375999451, 0.010887809097766876, } };
const TfArray<8, int> quant8_zero = { 8, { 0,0,0,0,0,0,0,0 } };
const TfLiteAffineQuantization quant8 = { (TfLiteFloatArray*)&quant8_scale, (TfLiteIntArray*)&quant8_zero, 0 };
const ALIGN(16) int32_t tensor_data9[8] = { 13104, 1124, -23198, 13280, -1826, -26198, 373, 9030, };
const TfArray<1, int> tensor_dimension9 = { 1, { 8 } };
const TfArray<8, float> quant9_scale = { 8, { 0.00012335101200733334, 0.00013242836575955153, 0.00015995871217455715, 0.00031744243460707366, 0.00035524109262041748, 0.00024344456323888153, 0.00019254596554674208, 0.00025618376093916595, } };
const TfArray<8, int> quant9_zero = { 8, { 0,0,0,0,0,0,0,0 } };
const TfLiteAffineQuantization quant9 = { (TfLiteFloatArray*)&quant9_scale, (TfLiteIntArray*)&quant9_zero, 0 };
const ALIGN(16) int8_t tensor_data10[48*1*1*8] = { 
  /* [0][0][][] */ 20,127,-29,97,-26,29,4,-28, 
  /* [1][0][][] */ -3,-8,127,102,78,-51,27,-26, 
  /* [2][0][][] */ -42,127,-9,51,-53,35,-8,19, 
  /* [3][0][][] */ 44,-78,-38,23,-61,127,-14,-96, 
  /* [4][0][][] */ 12,-25,85,127,54,-41,-49,-57, 
  /* [5][0][][] */ 127,-35,19,61,-14,84,-74,-49, 
  /* [6][0][][] */ -10,-127,-67,90,-55,26,34,3, 
  /* [7][0][][] */ 23,-21,83,127,85,-27,-1,-54, 
  /* [8][0][][] */ 31,-10,7,-7,-29,-95,-10,-127, 
  /* [9][0][][] */ 49,97,-56,107,-126,-32,127,22, 
  /* [10][0][][] */ -127,1,-17,1,8,-42,6,18, 
  /* [11][0][][] */ 0,127,-18,34,-33,20,-5,-11, 
  /* [12][0][][] */ 2,-25,-127,11,-11,116,-3,-30, 
  /* [13][0][][] */ 2,127,-9,6,3,13,-3,-7, 
  /* [14][0][][] */ 6,15,90,-119,-40,-55,127,29, 
  /* [15][0][][] */ 42,21,-46,-127,-75,-3,12,6, 
  /* [16][0][][] */ -81,-13,-19,51,24,113,-75,127, 
  /* [17][0][][] */ 0,-127,-11,48,-67,-18,7,0, 
  /* [18][0][][] */ -127,-65,-43,98,33,57,-87,-4, 
  /* [19][0][][] */ 25,43,14,-99,-16,-127,82,-28, 
  /* [20][0][][] */ 127,-37,-1,-5,-6,60,-16,-8, 
  /* [21][0][][] */ 24,33,58,-127,-53,-93,43,37, 
  /* [22][0][][] */ -22,127,-8,-17,5,-12,40,23, 
  /* [23][0][][] */ 12,6,81,127,96,-25,-3,-40, 
  /* [24][0][][] */ 4,127,12,-54,92,23,-12,-5, 
  /* [25][0][][] */ 4,11,59,90,127,2,123,-1, 
  /* [26][0][][] */ -127,-15,-24,13,36,35,18,95, 
  /* [27][0][][] */ 127,15,-2,22,11,30,-16,-49, 
  /* [28][0][][] */ -74,-38,1,127,-36,21,-120,-69, 
  /* [29][0][][] */ 120,47,-43,31,-127,11,5,-12, 
  /* [30][0][][] */ 2,-21,-29,-127,-108,-11,-31,34, 
  /* [31][0][][] */ -6,-127,14,0,6,-15,-6,-6, 
  /* [32][0][][] */ -54,62,47,-54,13,-61,38,127, 
  /* [33][0][][] */ 19,-127,0,-3,8,-12,-4,-12, 
  /* [34][0][][] */ 17,127,31,-39,-26,-72,71,16, 
  /* [35][0][][] */ -32,32,-61,82,122,-127,-21,32, 
  /* [36][0][][] */ 118,-5,3,-3,-26,-43,8,-127, 
  /* [37][0][][] */ -21,127,-49,-72,-106,56,27,50, 
  /* [38][0][][] */ -1,-6,127,-20,-40,-85,-28,-4, 
  /* [39][0][][] */ -89,9,2,-5,18,50,-3,127, 
  /* [40][0][][] */ 1,127,1,-25,44,17,-5,-4, 
  /* [41][0][][] */ 7,-32,-127,76,26,119,-38,-38, 
  /* [42][0][][] */ -127,0,-9,-3,5,-41,2,25, 
  /* [43][0][][] */ 32,-23,-44,123,-127,4,-3,-47, 
  /* [44][0][][] */ -35,-34,27,127,43,60,-81,-16, 
  /* [45][0][][] */ 127,5,14,-5,-11,-5,10,-22, 
  /* [46][0][][] */ 0,10,-14,17,58,117,127,7, 
  /* [47][0][][] */ -38,-89,83,-96,-127,70,61,-15, 
};
const TfArray<4, int> tensor_dimension10 = { 4, { 48,1,1,8 } };
const TfArray<48, float> quant10_scale = { 48, { 0.0014139744453132153, 0.0061345663852989674, 0.0015500885201618075, 0.0037903811316937208, 0.0026906155981123447, 0.0043828417547047138, 0.0025744761805981398, 0.00200832006521523, 0.0033355813939124346, 0.00058073259424418211, 0.0067692012526094913, 0.0040425052866339684, 0.0063039134256541729, 0.0060339844785630703, 0.001218929304741323, 0.0019225465366616845, 0.0023953660856932402, 0.0057155252434313297, 0.0035263854078948498, 0.003604724770411849, 0.0022068694233894348, 0.0074850083328783512, 0.00095957907615229487, 0.0035438400227576494, 0.0029533074703067541, 0.0069211637601256371, 0.0024686413817107677, 0.0063841943629086018, 0.0052599138580262661, 0.0011808106210082769, 0.0012356792576611042, 0.0049256477504968643, 0.00072475138586014509, 0.0054970579221844673, 0.0042220083996653557, 0.00069523730780929327, 0.0018562058685347438, 0.0016425936482846737, 0.0083438251167535782, 0.0063715940341353416, 0.0078243715688586235, 0.0092356204986572266, 0.0076335459016263485, 0.0023893576581031084, 0.0037715043872594833, 0.0062715434469282627, 0.0028353657107800245, 0.0028953941073268652, } };
const TfArray<48, int> quant10_zero = { 48, { 0,0,0,0,0,0,0,0,0,0,0,0,0,0,0,0,0,0,0,0,0,0,0,0,0,0,0,0,0,0,0,0,0,0,0,0,0,0,0,0,0,0,0,0,0,0,0,0 } };
const TfLiteAffineQuantization quant10 = { (TfLiteFloatArray*)&quant10_scale, (TfLiteIntArray*)&quant10_zero, 0 };
const ALIGN(16) int32_t tensor_data11[48] = { 5212, -616, 6888, 1354, 4670, -4853, 7351, 5222, 2423, 20773, 5726, -3163, -1481, -3822, 23579, 9842, 2809, 3262, 9354, 1548, 3756, 1341, 20208, 503, -3685, -2434, 9329, -3993, 4366, 8010, 19407, 5731, 25400, 4408, -6309, 26398, 5592, 7369, 2725, 2896, -3717, -692, 4516, 1408, 3778, -5375, 705, 6074, };
const TfArray<1, int> tensor_dimension11 = { 1, { 48 } };
const TfArray<48, float> quant11_scale = { 48, { 8.1030972069129348e-05, 0.0003515550633892417, 8.8831293396651745e-05, 0.00021721627854276448, 0.00015419175906572491, 0.00025116855977103114, 0.00014753612049389631, 0.00011509127944009379, 0.00019115296890959144, 3.3280182833550498e-05, 0.00038792422856204212, 0.00023166481696534902, 0.00036125988117419183, 0.00034579099155962467, 6.9853471359238029e-05, 0.00011017583165084943, 0.00013727182522416115, 0.0003275409690104425, 0.00020208740897942334, 0.0002065768203465268, 0.00012646958930417895, 0.00042894517537206411, 5.4990829084999859e-05, 0.00020308769308030605, 0.00016924590454436839, 0.0003966327931266278, 0.00014147102774586529, 0.00036586055648513138, 0.00030143113690428436, 6.766899605281651e-05, 7.0813366619404405e-05, 0.0002822752867359668, 4.1533501644153148e-05, 0.00031502122874371707, 0.00024195165315177292, 3.9842132537160069e-05, 0.00010637403465807438, 9.413250518264249e-05, 0.00047816158621571958, 0.00036513846134766936, 0.00044839314068667591, 0.00052926794160157442, 0.00043745743460021913, 0.00013692749780602753, 0.00021613450371660292, 0.00035940483212471008, 0.00016248697647824883, 0.00016592704923823476, } };
const TfArray<48, int> quant11_zero = { 48, { 0,0,0,0,0,0,0,0,0,0,0,0,0,0,0,0,0,0,0,0,0,0,0,0,0,0,0,0,0,0,0,0,0,0,0,0,0,0,0,0,0,0,0,0,0,0,0,0 } };
const TfLiteAffineQuantization quant11 = { (TfLiteFloatArray*)&quant11_scale, (TfLiteIntArray*)&quant11_zero, 0 };
const ALIGN(16) int8_t tensor_data12[1*3*3*48] = { 
  /* [0][0][][] */ 32,-105,50,81,-70,7,-35,-104,50,-20,26,44,98,-119,-69,-127,-3,33,80,0,-101,-127,83,-42,56,101,-56,33,-121,1,76,127,-79,40,82,-20,-21,-21,97,-43,-2,-84,62,-15,27,-13,-31,-18, -127,-127,106,127,-115,-9,-8,120,16,127,52,114,127,16,-82,85,61,91,127,-34,-127,-125,-54,16,127,127,127,70,-127,51,-117,-52,-127,80,81,-29,26,38,127,-63,-101,-86,100,-87,51,-74,-59,-14, 76,-35,1,30,-41,-19,69,1,-23,-68,5,80,28,4,-26,12,37,52,48,-9,-63,-3,-14,11,77,14,-73,57,38,78,36,-39,-121,54,49,-20,-4,-18,46,2,10,-35,25,-49,3,-92,-40,-32, 
  /* [0][1][][] */ 8,-33,116,68,64,68,60,98,-77,16,83,40,105,-127,-114,113,114,37,-38,-59,42,-107,127,-71,62,7,-17,66,-79,-18,79,120,39,75,63,-82,-99,-69,22,-30,-4,-100,127,-20,-74,-64,85,-81, -79,-46,127,104,127,127,25,-127,-127,-117,127,127,90,-2,-127,-67,127,127,-27,-95,48,-117,-99,127,120,29,-4,127,-85,-52,-127,-39,68,127,127,-127,127,127,34,-32,-127,-127,109,-127,-127,-127,127,-127, 66,-21,49,69,45,18,-127,0,59,70,62,94,41,18,-30,-17,42,65,9,-54,17,40,-40,-80,110,1,16,36,-2,127,61,-63,68,78,53,-53,-24,-59,-6,-45,22,-27,7,-93,-83,-94,85,-64, 
  /* [0][2][][] */ -18,56,12,-9,8,87,-27,-4,57,3,86,-17,-13,-52,-49,17,52,19,-74,-82,31,1,61,91,4,-84,3,41,13,-21,33,12,8,18,-94,-50,-9,-37,-89,-106,14,-44,75,-2,52,-51,-66,-50, -7,76,31,-43,-21,125,-16,22,67,-9,103,26,-45,24,-59,-19,61,40,-82,-127,47,-3,-71,-124,24,-104,-9,65,-5,-25,-63,16,16,36,37,-69,2,67,-122,-127,-65,-48,73,-60,85,-91,-68,-122, 19,27,13,-8,5,39,59,-7,-6,1,33,25,10,-4,-13,4,6,19,-39,-74,32,30,-18,73,27,-43,8,40,-21,111,22,-35,9,31,50,-60,7,-30,-74,-35,13,-1,21,-22,68,-49,-47,-59, 
};
const TfArray<4, int> tensor_dimension12 = { 4, { 1,3,3,48 } };
const TfArray<48, float> quant12_scale = { 48, { 0.011723890900611877, 0.0063107442110776901, 0.006146059837192297, 0.002949658315628767, 0.014826935715973377, 0.0032013317104429007, 0.013222606852650642, 0.053796693682670593, 0.0095146484673023224, 0.0169786736369133, 0.0034879078157246113, 0.0033490548375993967, 0.0088292704895138741, 0.0066729066893458366, 0.0087053794413805008, 0.026235954836010933, 0.0034944508224725723, 0.0050853914581239223, 0.0079548526555299759, 0.0045939045958220959, 0.010531787760555744, 0.0017606191104277968, 0.019270820543169975, 0.016802595928311348, 0.0036359936930239201, 0.0042892051860690117, 0.016481777653098106, 0.0031520489137619734, 0.0021185085643082857, 0.0084266401827335358, 0.030212853103876114, 0.007303241640329361, 0.029540244489908218, 0.0049574566073715687, 0.0044610751792788506, 0.010882852599024773, 0.018255621194839478, 0.011171173304319382, 0.0079568587243556976, 0.0036897445097565651, 0.0056063691154122353, 0.0023189645726233721, 0.0041413563303649426, 0.005444022361189127, 0.0064883679151535034, 0.002295629819855094, 0.0092051569372415543, 0.0037806627806276083, } };
const TfArray<48, int> quant12_zero = { 48, { 0,0,0,0,0,0,0,0,0,0,0,0,0,0,0,0,0,0,0,0,0,0,0,0,0,0,0,0,0,0,0,0,0,0,0,0,0,0,0,0,0,0,0,0,0,0,0,0 } };
const TfLiteAffineQuantization quant12 = { (TfLiteFloatArray*)&quant12_scale, (TfLiteIntArray*)&quant12_zero, 3 };
const ALIGN(16) int32_t tensor_data13[48] = { 1037, 6007, -15007, 7528, -22, 5464, 13, -9, -329, 9, -1296, -4963, 376, 3771, 40784, 81, 1825, 651, -56, 11515, 2858, 31135, 1230, -49, 810, 2800, 169, 742, 30936, -9200, 23, -620, 5402, -1746, 152, 23928, -217, 123, -150, 9366, 3536, 20798, -2073, 14827, -129, 31894, 322, 17071, };
const TfArray<1, int> tensor_dimension13 = { 1, { 48 } };
const TfArray<48, float> quant13_scale = { 48, { 0.00027585626230575144, 0.00014848810678813607, 0.00014461317914538085, 6.9403729867190123e-05, 0.00034886907087638974, 7.5325449870433658e-05, 0.00031112018041312695, 0.0012658046325668693, 0.00022387408534996212, 0.00039949821075424552, 8.2068421761505306e-05, 7.8801291238050908e-05, 0.00020774755103047937, 0.00015700957737863064, 0.00020483246771618724, 0.00061731657478958368, 8.2222373748663813e-05, 0.00011965627345489338, 0.00018717300554271787, 0.00010809187369886786, 0.00024780677631497383, 4.142633406445384e-05, 0.00045343107194639742, 0.00039535519317723811, 8.5552797827403992e-05, 0.00010092247975990176, 0.00038780653267167509, 7.4165858677588403e-05, 4.984726183465682e-05, 0.00019827389041893184, 0.00071089068660512567, 0.0001718409766908735, 0.00069506460567936301, 0.00011664604244288057, 0.00010496647882973775, 0.00025606711278669536, 0.00042954404489137232, 0.00026285112835466862, 0.0001872202119557187, 8.6817519331816584e-05, 0.00013191456673666835, 5.4563872254220769e-05, 9.744367707753554e-05, 0.00012809464533347636, 0.00015266748960129917, 5.4014821216696873e-05, 0.00021659192861989141, 8.8956774561665952e-05, } };
const TfArray<48, int> quant13_zero = { 48, { 0,0,0,0,0,0,0,0,0,0,0,0,0,0,0,0,0,0,0,0,0,0,0,0,0,0,0,0,0,0,0,0,0,0,0,0,0,0,0,0,0,0,0,0,0,0,0,0 } };
const TfLiteAffineQuantization quant13 = { (TfLiteFloatArray*)&quant13_scale, (TfLiteIntArray*)&quant13_zero, 0 };
const ALIGN(16) int8_t tensor_data14[8*1*1*48] = { 
  /* [0][0][][] */ 59,3,16,-36,-9,7,-4,-7,-3,24,-86,-46,19,11,8,-12,-12,82,-19,34,9,31,33,-6,66,0,-7,115,68,6,37,40,-15,32,-14,16,0,51,-32,-36,5,0,-28,55,-7,127,9,-16, 
  /* [1][0][][] */ 11,59,22,-45,33,2,-25,-16,9,-23,34,1,14,37,79,-12,7,1,43,-25,38,-57,13,-21,1,-127,-15,-29,37,36,21,15,34,-14,-45,-28,-11,20,-51,-14,42,33,-40,22,34,-30,32,12, 
  /* [2][0][][] */ -42,5,-87,-19,68,86,39,58,73,41,-114,45,48,3,-14,86,127,-45,45,-9,5,-45,-83,31,-61,-24,54,-19,16,-33,-70,-10,-4,33,20,3,70,-76,36,-118,-25,48,94,-32,16,25,16,34, 
  /* [3][0][][] */ -68,-27,12,-24,12,-5,-5,-3,-2,-40,-43,20,-13,29,-9,-10,-17,-80,-1,22,-1,-11,-39,-3,-127,-2,-9,69,61,10,-45,-45,0,-53,-9,16,-13,-50,24,16,31,32,13,-45,13,30,14,0, 
  /* [4][0][][] */ -37,2,-51,-70,17,33,21,23,19,14,-43,68,57,-10,99,33,47,-51,18,-47,-4,89,-23,11,-58,113,22,-38,10,-26,-17,-41,11,18,-34,-71,23,-24,-127,-108,-3,-113,40,-13,7,-15,13,39, 
  /* [5][0][][] */ 21,-12,114,7,95,-86,-71,-38,6,-59,113,-127,-23,61,-9,-36,63,-18,63,-25,81,13,41,-54,-9,29,-62,32,-14,63,41,-2,85,-46,5,17,-45,50,23,-6,90,0,-81,27,97,-19,85,-25, 
  /* [6][0][][] */ 41,-127,-16,-114,42,-22,-28,-15,0,-16,20,65,20,17,-3,-21,-19,40,52,7,32,-72,35,-28,3,121,-14,14,10,51,59,66,32,-60,-73,-116,-21,39,19,34,28,50,-39,1,35,-64,43,123, 
  /* [7][0][][] */ -29,-10,-76,-12,-20,7,4,4,-8,-13,-8,-30,-1,62,-3,-9,-2,-66,-8,-1,-22,14,-86,12,-42,7,1,2,-20,7,-65,-15,-21,127,7,-13,-5,-71,10,17,38,9,33,49,-16,9,-17,9, 
};
const TfArray<4, int> tensor_dimension14 = { 4, { 8,1,1,48 } };
const TfArray<8, float> quant14_scale = { 8, { 0.004827592521905899, 0.006738557480275631, 0.0051117260009050369, 0.0061179157346487045, 0.0049270861782133579, 0.0063791712746024132, 0.0038312457036226988, 0.005559820681810379, } };
const TfArray<8, int> quant14_zero = { 8, { 0,0,0,0,0,0,0,0 } };
const TfLiteAffineQuantization quant14 = { (TfLiteFloatArray*)&quant14_scale, (TfLiteIntArray*)&quant14_zero, 0 };
const ALIGN(16) int32_t tensor_data15[8] = { -19529, 1748, -3752, 7147, 5285, -9288, 3883, 1239, };
const TfArray<1, int> tensor_dimension15 = { 1, { 8 } };
const TfArray<8, float> quant15_scale = { 8, { 0.00011359041673131287, 0.00015855429228395224, 0.00012027590855723247, 0.00014395096513908356, 0.00011593144154176116, 0.0001500981452409178, 9.0146961156278849e-05, 0.00013081931683700532, } };
const TfArray<8, int> quant15_zero = { 8, { 0,0,0,0,0,0,0,0 } };
const TfLiteAffineQuantization quant15 = { (TfLiteFloatArray*)&quant15_scale, (TfLiteIntArray*)&quant15_zero, 0 };
const ALIGN(16) int8_t tensor_data16[48*1*1*8] = { 
  /* [0][0][][] */ -21,127,9,7,-93,-42,-114,-30, 
  /* [1][0][][] */ 38,24,45,-12,-61,-6,127,-79, 
  /* [2][0][][] */ -48,-44,77,-7,-127,29,12,12, 
  /* [3][0][][] */ 127,-4,27,77,-3,1,-31,-24, 
  /* [4][0][][] */ -63,13,8,-127,1,33,21,108, 
  /* [5][0][][] */ -127,38,3,-69,0,8,26,19, 
  /* [6][0][][] */ 75,18,2,14,-7,-2,29,127, 
  /* [7][0][][] */ -22,-6,-127,84,-1,-6,1,83, 
  /* [8][0][][] */ 127,14,-6,69,9,-22,-4,-32, 
  /* [9][0][][] */ 28,-17,7,-78,-3,30,-8,127, 
  /* [10][0][][] */ 39,2,9,-75,-5,30,0,127, 
  /* [11][0][][] */ -5,39,-127,83,14,-7,-31,75, 
  /* [12][0][][] */ -29,-11,127,30,40,55,-27,3, 
  /* [13][0][][] */ 28,14,99,-127,-91,-12,-38,-77, 
  /* [14][0][][] */ -127,26,-62,-114,4,1,-29,21, 
  /* [15][0][][] */ -56,-8,-11,28,15,-87,-33,127, 
  /* [16][0][][] */ -125,24,7,-127,-9,23,25,101, 
  /* [17][0][][] */ -6,-19,-30,127,21,39,-8,54, 
  /* [18][0][][] */ -60,-3,-29,127,-2,-67,28,-113, 
  /* [19][0][][] */ 48,25,-127,-78,-35,-64,16,-42, 
  /* [20][0][][] */ 92,-80,47,58,51,-22,-127,-35, 
  /* [21][0][][] */ 25,-7,127,-89,101,126,-10,-101, 
  /* [22][0][][] */ 19,-59,-11,-6,-1,78,-127,75, 
  /* [23][0][][] */ -82,-30,-10,-25,-22,-2,42,-127, 
  /* [24][0][][] */ 11,-127,-3,-13,60,40,86,15, 
  /* [25][0][][] */ 26,-95,-4,-84,61,97,-127,20, 
  /* [26][0][][] */ -28,-38,127,-14,59,59,-70,-24, 
  /* [27][0][][] */ 28,-127,28,-8,1,14,51,3, 
  /* [28][0][][] */ -127,6,-11,-17,20,9,11,-52, 
  /* [29][0][][] */ 28,127,19,42,-98,-63,15,90, 
  /* [30][0][][] */ -44,23,15,-127,63,5,90,43, 
  /* [31][0][][] */ 60,91,-114,103,-54,127,94,90, 
  /* [32][0][][] */ 44,-4,17,-68,-8,21,-3,127, 
  /* [33][0][][] */ 127,17,-11,92,-39,-57,60,-6, 
  /* [34][0][][] */ 45,-22,0,-127,-49,-13,28,-73, 
  /* [35][0][][] */ 53,-54,36,28,-6,14,127,26, 
  /* [36][0][][] */ 2,-60,112,45,85,72,-127,21, 
  /* [37][0][][] */ 127,-9,-103,70,-8,-48,12,57, 
  /* [38][0][][] */ 26,-19,92,-127,-23,-53,38,-101, 
  /* [39][0][][] */ 85,2,20,125,6,-43,9,-127, 
  /* [40][0][][] */ 72,-30,-39,14,66,47,-127,-18, 
  /* [41][0][][] */ -43,-35,127,102,72,66,-122,41, 
  /* [42][0][][] */ 127,7,24,2,19,13,-22,66, 
  /* [43][0][][] */ 119,-53,66,5,-51,73,-10,127, 
  /* [44][0][][] */ -27,17,-127,7,-39,-18,38,53, 
  /* [45][0][][] */ -1,53,4,-20,4,-77,127,-18, 
  /* [46][0][][] */ 127,-2,12,27,-10,-12,-2,61, 
  /* [47][0][][] */ -55,4,16,127,43,0,-41,53, 
};
const TfArray<4, int> tensor_dimension16 = { 4, { 48,1,1,8 } };
const TfArray<48, float> quant16_scale = { 48, { 0.0021849770564585924, 0.0045171603560447693, 0.0045438590459525585, 0.0062204431742429733, 0.004040322732180357, 0.0049385558813810349, 0.0057480065152049065, 0.0039947922341525555, 0.0018339995294809341, 0.0059261438436806202, 0.0041021588258445263, 0.0033307273406535387, 0.0032513812184333801, 0.0014078319072723389, 0.0051180729642510414, 0.0035859316121786833, 0.0054123229347169399, 0.0014703660272061825, 0.0044127530418336391, 0.0037763817235827446, 0.0037027045618742704, 0.0026716934517025948, 0.0035854887682944536, 0.0049917628057301044, 0.0072365296073257923, 0.0025153574533760548, 0.0034524966031312943, 0.0066985324956476688, 0.0042530926875770092, 0.0018972968682646751, 0.0030993414111435413, 0.0015707056736573577, 0.0022686487063765526, 0.006262131966650486, 0.0024602306075394154, 0.0054948991164565086, 0.0023222852032631636, 0.0009392673964612186, 0.0025887759402394295, 0.0055659506469964981, 0.0067134024575352669, 0.0031858289148658514, 0.006347358226776123, 0.0039049065671861172, 0.0012469986686483026, 0.0030380829703062773, 0.0068061216734349728, 0.0052722729742527008, } };
const TfArray<48, int> quant16_zero = { 48, { 0,0,0,0,0,0,0,0,0,0,0,0,0,0,0,0,0,0,0,0,0,0,0,0,0,0,0,0,0,0,0,0,0,0,0,0,0,0,0,0,0,0,0,0,0,0,0,0 } };
const TfLiteAffineQuantization quant16 = { (TfLiteFloatArray*)&quant16_scale, (TfLiteIntArray*)&quant16_zero, 0 };
const ALIGN(16) int32_t tensor_data17[48] = { 11598, 3841, 4427, 2608, 5000, 4430, 947, -258, 15242, 1403, 5444, 5071, 7249, 18474, 2607, 4870, 1598, 18806, -2435, 4598, 5188, 5247, 6533, -2348, 2035, 9488, 6268, 1546, 5434, 13707, 7240, 19508, 11753, -54, 9551, 3389, 9552, 32062, 6844, -166, -1670, 4536, 1392, 4524, 25817, 8326, 1391, -3683, };
const TfArray<1, int> tensor_dimension17 = { 1, { 48 } };
const TfArray<48, float> quant17_scale = { 48, { 7.9895711678545922e-05, 0.00016517414769623429, 0.00016615040658507496, 0.00022745625756215304, 0.00014773814473301172, 0.00018058286514133215, 0.00021018118422944099, 0.0001460732746636495, 6.7061890149489045e-05, 0.00021669494162779301, 0.00014999923587311059, 0.00012179112673038617, 0.00011888976587215438, 5.1478677050909027e-05, 0.00018714707402978092, 0.00013112291344441473, 0.00019790660007856786, 5.376529588829726e-05, 0.00016135639452841133, 0.0001380868925480172, 0.00013539282372221351, 9.769294410943985e-05, 0.00013110671716276556, 0.00018252842710353434, 0.00026461039669811726, 9.197637700708583e-05, 0.00012624372902791947, 0.00024493804085068405, 0.00015551826800219715, 6.9376415922306478e-05, 0.00011333028669469059, 5.7434306654613465e-05, 8.2955237303394824e-05, 0.00022898065799381584, 8.9960609329864383e-05, 0.0002009260788327083, 8.4916508058086038e-05, 3.4345182939432561e-05, 9.4660987087991089e-05, 0.00020352413412183523, 0.0002454817877151072, 0.00011649278167169541, 0.00023209703795146197, 0.00014278652088250965, 4.5597662392538041e-05, 0.00011109031765954569, 0.00024887215113267303, 0.00019278554827906191, } };
const TfArray<48, int> quant17_zero = { 48, { 0,0,0,0,0,0,0,0,0,0,0,0,0,0,0,0,0,0,0,0,0,0,0,0,0,0,0,0,0,0,0,0,0,0,0,0,0,0,0,0,0,0,0,0,0,0,0,0 } };
const TfLiteAffineQuantization quant17 = { (TfLiteFloatArray*)&quant17_scale, (TfLiteIntArray*)&quant17_zero, 0 };
const ALIGN(16) int8_t tensor_data18[1*3*3*48] = { 
  /* [0][0][][] */ 22,11,-18,-14,-13,20,119,6,-4,-35,-47,-16,13,-3,1,13,4,-12,-18,25,95,-13,17,-77,-22,109,-127,34,-39,-3,12,-51,-11,51,-12,91,-18,-14,-56,5,-4,13,49,-21,-1,78,-7,-28, 53,53,51,-64,-3,-11,-127,38,-26,34,-97,-4,-127,-33,-124,68,53,-38,81,-94,85,-54,-17,106,-63,-127,47,-40,34,-17,127,-63,110,127,-80,-79,-127,44,-124,-14,66,80,127,121,-14,1,53,71, 12,4,-11,-7,31,-11,-78,-7,5,3,-38,4,30,28,6,-10,-8,37,-101,-19,74,7,-23,110,-20,-8,-107,30,0,18,-17,-21,6,30,-5,-36,-20,-16,-19,-7,3,10,46,-1,-1,-2,-6,-21, 
  /* [0][1][][] */ -110,35,-84,31,2,-127,-69,42,-11,-105,-80,1,-34,42,13,79,30,24,127,127,-8,-82,113,-90,-41,-107,-19,-10,38,32,50,-63,2,21,47,115,41,-127,-70,-76,90,46,116,-39,-7,127,9,49, -127,-127,127,127,127,123,50,-127,127,127,-127,-127,-85,76,127,127,127,-85,76,-25,127,67,-127,45,127,110,26,120,-127,-127,62,127,-127,-18,127,-127,98,-97,-18,-127,127,49,-114,17,127,9,127,127, -74,12,-60,20,-69,12,91,37,-10,-23,-114,36,18,-127,-1,-7,51,127,-101,65,-9,-127,33,127,-48,6,-38,-38,68,100,0,-34,-5,13,19,34,30,-25,-11,28,50,22,-51,127,-13,16,55,-6, 
  /* [0][2][][] */ 69,5,-15,-15,57,-11,-33,-4,3,-21,5,5,4,-16,21,14,-17,-4,-1,4,11,17,15,-15,-19,-16,-18,-7,3,-16,-5,-14,13,-85,-24,44,6,100,92,-7,-76,-127,83,-21,-1,62,-5,-34, 96,49,40,-64,-77,12,77,42,18,13,29,23,-50,-30,5,-77,58,-13,-26,-103,-67,-22,-1,-64,40,19,-47,127,4,17,-1,-40,1,-117,-93,-44,-22,123,127,10,-97,-31,37,-10,-20,20,11,2, 57,15,5,-18,21,1,-12,-15,18,17,24,6,4,34,22,5,22,4,-32,-54,-8,13,-28,-22,-15,5,-31,-33,-23,-2,8,-11,-4,-50,-13,-16,9,24,54,-16,-86,-99,-37,-10,0,3,-2,-22, 
};
const TfArray<4, int> tensor_dimension18 = { 4, { 1,3,3,48 } };
const TfArray<48, float> quant18_scale = { 48, { 0.011230808682739735, 0.006152014248073101, 0.0126750273630023, 0.0093698380514979362, 0.010718660429120064, 0.015927286818623543, 0.0080122929066419601, 0.036125913262367249, 0.041790138930082321, 0.0081356577575206757, 0.0057205245830118656, 0.010221889242529869, 0.010376709513366222, 0.028292495757341385, 0.008596138097345829, 0.0063659297302365303, 0.0047221067361533642, 0.030411470681428909, 0.0073989857919514179, 0.0081048719584941864, 0.0041018193587660789, 0.0040368628688156605, 0.012165217660367489, 0.0047855782322585583, 0.00902510154992342, 0.013611528091132641, 0.0052992478013038635, 0.0050684856250882149, 0.018665134906768799, 0.023127846419811249, 0.0076605034992098808, 0.008820204995572567, 0.026994926854968071, 0.0068045970983803272, 0.017788872122764587, 0.0084924036636948586, 0.010501468554139137, 0.020529119297862053, 0.0063670719973742962, 0.0051732789725065231, 0.0071159661747515202, 0.0075202994048595428, 0.0043249749578535557, 0.0062242988497018814, 0.055724594742059708, 0.0084309857338666916, 0.007802960928529501, 0.0135048758238554, } };
const TfArray<48, int> quant18_zero = { 48, { 0,0,0,0,0,0,0,0,0,0,0,0,0,0,0,0,0,0,0,0,0,0,0,0,0,0,0,0,0,0,0,0,0,0,0,0,0,0,0,0,0,0,0,0,0,0,0,0 } };
const TfLiteAffineQuantization quant18 = { (TfLiteFloatArray*)&quant18_scale, (TfLiteIntArray*)&quant18_zero, 3 };
const ALIGN(16) int32_t tensor_data19[48] = { 4, 12549, -1711, -1, -2387, -415, -454, -869, -5325, -129, 14733, 5815, 7527, 1071, -2148, -5521, -4547, -2026, -93, 1546, -5233, 17351, 1164, 5459, -124, 162, 8188, -10, 1669, -248, -8543, 12494, 604, 363, 304, -375, 2679, -736, 42, 12219, 354, 26, -2687, -2057, -4409, -10833, -4100, 2052, };
const TfArray<1, int> tensor_dimension19 = { 1, { 48 } };
const TfArray<48, float> quant19_scale = { 48, { 0.00026425434043630958, 0.00014475328498519957, 0.00029823594377376139, 0.00022046678350307047, 0.00025220378302037716, 0.00037475969293154776, 0.0001885245437733829, 0.00085002148989588022, 0.00098329735919833183, 0.00019142724340781569, 0.00013460057380143553, 0.00024051504442468286, 0.00024415788357146084, 0.00066570576746016741, 0.00020226207561790943, 0.00014978658873587847, 0.00011110839841421694, 0.00071556400507688522, 0.00017409378779120743, 0.00019070287817157805, 9.651339496485889e-05, 9.4985007308423519e-05, 0.00028624042170122266, 0.00011260183964623138, 0.00021235532767605036, 0.00032027126871980727, 0.00012468818749766797, 0.00011925848957616836, 0.00043917965376749635, 0.00054418464424088597, 0.0001802471379050985, 0.00020753423450514674, 0.0006351747433654964, 0.00016010817489586771, 0.00041856171446852386, 0.00019982126832474023, 0.00024709338322281837, 0.00048303810763172805, 0.00014981346612330526, 0.00012172421702416614, 0.00016743449668865651, 0.00017694821872282773, 0.00010176411888096482, 0.00014645409828517586, 0.0013111669104546309, 0.00019837613217532635, 0.00018359908426646143, 0.0003177617909386754, } };
const TfArray<48, int> quant19_zero = { 48, { 0,0,0,0,0,0,0,0,0,0,0,0,0,0,0,0,0,0,0,0,0,0,0,0,0,0,0,0,0,0,0,0,0,0,0,0,0,0,0,0,0,0,0,0,0,0,0,0 } };
const TfLiteAffineQuantization quant19 = { (TfLiteFloatArray*)&quant19_scale, (TfLiteIntArray*)&quant19_zero, 0 };
const ALIGN(16) int8_t tensor_data20[8*1*1*48] = { 
  /* [0][0][][] */ -19,47,-30,-54,-127,-47,-78,-21,-25,-105,-3,-33,-86,-26,-44,-74,38,-51,-89,44,-1,4,-100,5,-59,-88,6,-32,-85,-96,-14,74,-63,-65,14,-20,12,-66,1,81,-59,29,28,-21,80,-61,-40,-32, 
  /* [1][0][][] */ 47,-25,11,27,-38,-77,-63,-5,81,-4,-27,27,-9,-31,-37,-56,-9,33,-48,51,-41,4,-25,78,-127,-42,-19,-86,-10,4,75,-34,-58,-35,36,-48,-17,5,11,-52,30,5,77,-67,35,68,21,-31, 
  /* [2][0][][] */ 12,-35,-11,38,-3,43,21,92,50,-55,-12,116,-87,26,9,9,-34,-87,-54,-41,-15,127,-44,50,5,40,101,0,-11,-16,9,-9,49,-14,30,-73,-71,-3,-14,47,9,-20,-27,-46,-116,33,-32,-12, 
  /* [3][0][][] */ 9,127,-33,-6,-9,-19,-12,-24,-21,-35,42,-35,-44,-11,7,1,80,-56,0,-14,-53,-26,-21,-22,-65,-21,9,-18,-6,-38,2,90,-27,33,-9,1,-30,-5,15,-9,4,14,22,15,-10,-8,58,31, 
  /* [4][0][][] */ 16,24,-127,26,4,35,39,45,28,-41,59,28,41,-11,60,25,26,46,7,-65,42,-48,-25,1,74,29,96,-124,5,10,112,0,26,54,53,-17,5,25,63,-39,113,63,-37,28,-108,83,59,19, 
  /* [5][0][][] */ 62,79,26,81,34,-37,-30,-20,-65,11,-79,-18,-30,5,53,-98,7,25,-33,-11,61,28,13,-48,39,-44,12,52,27,-30,-56,-81,-47,22,8,40,71,127,37,-13,15,51,5,38,-5,-72,-23,75, 
  /* [6][0][][] */ 1,18,19,19,-13,-44,-37,5,11,8,-23,18,-14,-40,-47,-7,-1,-42,-24,27,-57,35,-11,42,127,-10,-18,63,2,24,10,-14,-27,-24,14,-64,-52,-28,-47,-23,-13,-31,50,-60,7,71,13,-60, 
  /* [7][0][][] */ -6,-72,-3,5,-49,53,39,-30,106,-41,-1,-87,-37,72,-29,-2,-90,12,-18,20,6,-98,-20,68,83,25,-9,42,-67,41,-28,1,109,-20,-90,-18,53,-14,44,115,-39,59,-6,-41,89,-13,-127,100, 
};
const TfArray<4, int> tensor_dimension20 = { 4, { 8,1,1,48 } };
const TfArray<8, float> quant20_scale = { 8, { 0.0082291169092059135, 0.0067317350767552853, 0.0063919210806488991, 0.014082305133342743, 0.0035296769347041845, 0.0073111215606331825, 0.0099309943616390228, 0.0076306755654513836, } };
const TfArray<8, int> quant20_zero = { 8, { 0,0,0,0,0,0,0,0 } };
const TfLiteAffineQuantization quant20 = { (TfLiteFloatArray*)&quant20_scale, (TfLiteIntArray*)&quant20_zero, 0 };
const ALIGN(16) int32_t tensor_data21[8] = { 12244, 9857, -4994, -9129, -10212, -8628, 3896, 2668, };
const TfArray<1, int> tensor_dimension21 = { 1, { 8 } };
const TfArray<8, float> quant21_scale = { 8, { 0.00019362628518138081, 0.00015839377010706812, 0.00015039814752526581, 0.00033134836121462286, 8.3051221736241132e-05, 0.00017202639719471335, 0.00023367046378552914, 0.00017954531358554959, } };
const TfArray<8, int> quant21_zero = { 8, { 0,0,0,0,0,0,0,0 } };
const TfLiteAffineQuantization quant21 = { (TfLiteFloatArray*)&quant21_scale, (TfLiteIntArray*)&quant21_zero, 0 };
const ALIGN(16) int8_t tensor_data22[48*1*1*8] = { 
  /* [0][0][][] */ -127,-20,-95,-94,-37,-78,-29,-37, 
  /* [1][0][][] */ -46,89,-73,127,88,13,102,-81, 
  /* [2][0][][] */ 17,-11,-111,-107,-36,-54,27,-127, 
  /* [3][0][][] */ -24,-86,5,-87,72,-127,-102,58, 
  /* [4][0][][] */ 9,12,3,13,13,-127,10,65, 
  /* [5][0][][] */ 12,21,0,-40,127,-11,-91,-18, 
  /* [6][0][][] */ -40,-30,-16,-27,26,127,12,-62, 
  /* [7][0][][] */ 10,-68,-16,-14,127,22,98,-6, 
  /* [8][0][][] */ -6,127,25,38,-42,-79,-104,-39, 
  /* [9][0][][] */ -96,100,-105,127,-100,-75,77,86, 
  /* [10][0][][] */ -102,41,-110,38,-22,17,-28,127, 
  /* [11][0][][] */ -120,21,-127,-47,-57,-35,27,-36, 
  /* [12][0][][] */ 30,-2,-102,15,127,11,10,26, 
  /* [13][0][][] */ -47,-32,-1,127,24,-106,1,32, 
  /* [14][0][][] */ 8,-10,-37,-14,127,-2,30,25, 
  /* [15][0][][] */ -19,31,127,-100,32,104,-58,-22, 
  /* [16][0][][] */ -127,86,81,37,70,-51,1,-123, 
  /* [17][0][][] */ 31,51,30,33,-127,-52,-106,-24, 
  /* [18][0][][] */ 30,-127,-84,30,80,17,22,44, 
  /* [19][0][][] */ 27,127,-109,0,-10,56,38,-26, 
  /* [20][0][][] */ 20,-59,-36,-36,127,37,37,24, 
  /* [21][0][][] */ -77,27,127,-11,-66,80,19,-22, 
  /* [22][0][][] */ 6,-24,25,127,-11,10,12,74, 
  /* [23][0][][] */ -43,-36,34,127,-59,-70,79,-1, 
  /* [24][0][][] */ -44,127,38,42,-82,-60,-105,-22, 
  /* [25][0][][] */ -47,44,31,127,-52,-34,115,38, 
  /* [26][0][][] */ 18,-51,127,39,35,-16,-56,94, 
  /* [27][0][][] */ 127,-16,9,10,24,-60,8,50, 
  /* [28][0][][] */ 89,-20,123,-15,11,-37,33,-127, 
  /* [29][0][][] */ -10,10,31,127,-8,27,25,76, 
  /* [30][0][][] */ 46,-127,-22,10,-101,31,81,-14, 
  /* [31][0][][] */ -3,-32,67,-43,-40,-27,127,-28, 
  /* [32][0][][] */ 19,-47,-127,27,-27,-115,-5,5, 
  /* [33][0][][] */ 65,102,2,-16,61,127,-5,46, 
  /* [34][0][][] */ 30,118,-127,-25,-16,61,40,21, 
  /* [35][0][][] */ 6,46,127,13,49,126,-2,-19, 
  /* [36][0][][] */ 127,-18,19,-121,-15,-52,36,-57, 
  /* [37][0][][] */ -62,61,14,50,0,127,24,-13, 
  /* [38][0][][] */ -119,82,-78,-57,-66,-39,44,-127, 
  /* [39][0][][] */ 81,80,-86,-127,66,-3,-45,22, 
  /* [40][0][][] */ -127,-6,125,-120,9,-58,-46,34, 
  /* [41][0][][] */ -127,17,-14,47,-12,-36,12,42, 
  /* [42][0][][] */ 79,-2,-99,-18,-43,-71,71,-127, 
  /* [43][0][][] */ -98,-73,127,116,43,-10,-27,74, 
  /* [44][0][][] */ -7,108,60,2,-127,-41,-118,-44, 
  /* [45][0][][] */ 66,-60,-33,-57,22,17,-127,-21, 
  /* [46][0][][] */ -100,-127,-90,57,74,50,123,-2, 
  /* [47][0][][] */ -51,-30,-127,108,26,-2,-20,-91, 
};
const TfArray<4, int> tensor_dimension22 = { 4, { 48,1,1,8 } };
const TfArray<48, float> quant22_scale = { 48, { 0.0012369302567094564, 0.0011788400588557124, 0.0013156719505786896, 0.0025038407184183598, 0.0028937363531440496, 0.003124746261164546, 0.0027013211511075497, 0.0022594204638153315, 0.0026436184998601675, 0.0019805191550403833, 0.003210816066712141, 0.0021842597052454948, 0.0038945069536566734, 0.0030308619607239962, 0.0034162818919867277, 0.002159422729164362, 0.0014140901621431112, 0.0018703107489272952, 0.0017398246563971043, 0.0028533767908811569, 0.002831378486007452, 0.0024691245052963495, 0.002511089202016592, 0.0016943411901593208, 0.0036598569713532925, 0.0026437907945364714, 0.00291213090531528, 0.0028038041200488806, 0.0024979074951261282, 0.0026925259735435247, 0.0036136950366199017, 0.0024211604613810778, 0.0027662322390824556, 0.0023997360840439796, 0.0013890503905713558, 0.0019813552498817444, 0.0019648638553917408, 0.0033752322196960449, 0.0013429358368739486, 0.001196680124849081, 0.0015448912745341659, 0.0038689202629029751, 0.002415533410385251, 0.0013148827711120248, 0.002274165628477931, 0.0032585356384515762, 0.0025227423757314682, 0.0023330601397901773, } };
const TfArray<48, int> quant22_zero = { 48, { 0,0,0,0,0,0,0,0,0,0,0,0,0,0,0,0,0,0,0,0,0,0,0,0,0,0,0,0,0,0,0,0,0,0,0,0,0,0,0,0,0,0,0,0,0,0,0,0 } };
const TfLiteAffineQuantization quant22 = { (TfLiteFloatArray*)&quant22_scale, (TfLiteIntArray*)&quant22_zero, 0 };
const ALIGN(16) int32_t tensor_data23[48] = { 8392, 10425, 7953, -1481, 2685, 2474, -1799, 477, 3283, -3176, -1009, 3201, -683, 1350, 3210, 3395, -6897, -3155, 6215, 2630, 2073, -2762, -2824, -4921, 22, 1005, 1335, -1924, 3252, 1322, -1092, -2242, -1541, 2846, 8093, 5157, 4503, 1969, 4496, 10004, 5572, 2064, 1848, 8516, 3943, 829, -1961, 2569, };
const TfArray<1, int> tensor_dimension23 = { 1, { 48 } };
const TfArray<48, float> quant23_scale = { 48, { 9.8130229162052274e-05, 9.3521717644762248e-05, 0.00010437709715915844, 0.00019863889610860497, 0.00022957075270824134, 0.0002478976093698293, 0.0002143057354260236, 0.00017924813437275589, 0.00020972797938156873, 0.00015712187450844795, 0.00025472583365626633, 0.00017328535614069551, 0.00030896556563675404, 0.00024044942983891815, 0.00027102621970698237, 0.0001713149540591985, 0.00011218497093068436, 0.00014837863272987306, 0.00013802669127471745, 0.00022636888024862856, 0.00022462366905529052, 0.00019588472787290812, 0.00019921394414268434, 0.00013441831106320024, 0.00029034991166554391, 0.00020974164362996817, 0.00023103006242308766, 0.00022243609419092536, 0.00019816818530671299, 0.00021360798564273864, 0.0002866877184715122, 0.0001920795621117577, 0.00021945538173895329, 0.00019037988386116922, 0.00011019847443094477, 0.00015718820213805884, 0.00015587988309562206, 0.00026776958839036524, 0.00010654003563104197, 9.4937036919873208e-05, 0.00012256190530024469, 0.00030693566077388823, 0.00019163315300829709, 0.00010431448754388839, 0.00018041791918221861, 0.0002585116308182478, 0.00020013842731714249, 0.00018509024812374264, } };
const TfArray<48, int> quant23_zero = { 48, { 0,0,0,0,0,0,0,0,0,0,0,0,0,0,0,0,0,0,0,0,0,0,0,0,0,0,0,0,0,0,0,0,0,0,0,0,0,0,0,0,0,0,0,0,0,0,0,0 } };
const TfLiteAffineQuantization quant23 = { (TfLiteFloatArray*)&quant23_scale, (TfLiteIntArray*)&quant23_zero, 0 };
const ALIGN(16) int8_t tensor_data24[1*3*3*48] = { 
  /* [0][0][][] */ -101,-39,-99,69,65,-69,68,78,-58,-67,98,-83,58,-61,-39,69,92,98,-48,59,-68,82,68,105,52,-79,53,87,67,-55,-48,78,51,-61,-17,-84,-74,-50,127,-61,-64,-106,-55,-81,91,40,-119,-62, -101,-61,-112,103,95,-97,93,95,-61,-92,119,-124,67,-69,-41,99,122,111,-74,84,-83,103,90,127,74,-117,91,92,84,-97,-79,107,80,-93,111,-100,-87,-61,123,-82,-92,-90,-91,-103,-43,74,-122,-70, -80,-25,-43,52,47,-42,51,40,-40,-30,74,-59,23,-24,-26,33,34,-6,-46,60,-9,41,20,31,29,-71,48,43,21,-32,-20,53,39,-41,-86,-48,-53,-29,102,-22,-49,-39,-24,-23,-62,32,-61,-43, 
  /* [0][1][][] */ -127,-80,-126,96,79,-89,91,104,-90,-94,91,-69,100,-106,-110,90,90,113,-83,83,-112,97,91,103,82,-114,75,117,106,-69,-102,87,87,-81,-10,-106,-86,-96,-63,-87,-91,-127,-70,-103,127,82,-119,-111, -125,-127,-127,127,127,-127,127,127,-127,-127,127,-127,127,-127,-127,127,127,127,-127,127,-127,127,127,123,127,-127,127,127,127,-127,-127,127,127,-127,119,-127,-127,-127,-78,-127,-127,-82,-127,-127,-42,127,-127,-127, -94,-55,-71,50,50,-53,67,51,-65,-52,60,-67,38,-43,-32,48,48,-10,-57,74,-39,60,41,34,41,-95,76,58,43,-49,-52,65,60,-51,-127,-60,-64,-88,-66,-44,-70,-79,-51,-32,-112,59,-57,-81, 
  /* [0][2][][] */ -37,-56,-56,25,22,-42,30,40,-48,-40,49,-19,53,-35,-57,28,14,43,-49,14,-65,23,26,35,27,-48,32,61,44,-18,-39,22,39,-42,-3,-57,-24,-62,-111,-30,-39,-94,-34,-47,74,42,-60,-51, -38,-82,-60,33,33,-62,51,54,-87,-73,69,-44,56,-54,-77,43,38,41,-76,29,-80,34,40,23,36,-77,52,60,46,-45,-55,38,57,-43,50,-87,-69,-99,-127,-40,-69,-72,-53,-54,21,60,-66,-85, -25,-42,-31,1,3,-23,29,18,-32,-25,5,-40,15,-16,-25,19,33,-26,-28,26,-31,15,21,10,7,-42,39,6,19,-24,-41,12,27,-15,-80,-28,-36,-74,-86,-32,-21,-39,-28,-14,-63,35,-17,-38, 
};
const TfArray<4, int> tensor_dimension24 = { 4, { 1,3,3,48 } };
const TfArray<48, float> quant24_scale = { 48, { 0.0047111101448535919, 0.0048126140609383583, 0.0044279466383159161, 0.0041982973925769329, 0.0037723479326814413, 0.0026899690274149179, 0.0043665249831974506, 0.0046906829811632633, 0.0029903461690992117, 0.0056031392887234688, 0.0039076916873455048, 0.0029835130553692579, 0.0035137019585818052, 0.003030506195500493, 0.0047085229307413101, 0.0032910916488617659, 0.010195574723184109, 0.01287421677261591, 0.0044222716242074966, 0.0031019418966025114, 0.0033605655189603567, 0.0053832670673727989, 0.011925419792532921, 0.011972002685070038, 0.0030926866456866264, 0.0032339582685381174, 0.0059753940440714359, 0.0095516899600625038, 0.0026906623970717192, 0.0045575331896543503, 0.0035381780471652746, 0.0046480116434395313, 0.0077126058749854565, 0.0027925369795411825, 0.0070684193633496761, 0.00477595254778862, 0.003592037595808506, 0.0030456306412816048, 0.0046658283099532127, 0.0055568753741681576, 0.005120876245200634, 0.0028353852685540915, 0.0031196554191410542, 0.0051990887150168419, 0.0072908992879092693, 0.0034118511248379946, 0.0027875537052750587, 0.0045354906469583511, } };
const TfArray<48, int> quant24_zero = { 48, { 0,0,0,0,0,0,0,0,0,0,0,0,0,0,0,0,0,0,0,0,0,0,0,0,0,0,0,0,0,0,0,0,0,0,0,0,0,0,0,0,0,0,0,0,0,0,0,0 } };
const TfLiteAffineQuantization quant24 = { (TfLiteFloatArray*)&quant24_scale, (TfLiteIntArray*)&quant24_zero, 3 };
const ALIGN(16) int32_t tensor_data25[48] = { 21271, 31845, 24901, -667, 92, 30847, -7408, 243, 25592, 9518, -8632, 23812, -392, 29771, 21218, 1162, -450, -1528, 26680, -10208, 25830, -2342, -179, -1230, 2967, 13693, -18254, -4546, -4, 16784, 18189, 1616, -265, 27360, -9227, 20262, 20380, 15545, -1295, 21981, 18776, 14920, 23243, 24783, -232, -235, 16223, 14783, };
const TfArray<1, int> tensor_dimension25 = { 1, { 48 } };
const TfArray<48, float> quant25_scale = { 48, { 0.00011084965080954134, 0.00011323797662043944, 0.00010418698366265744, 9.8783471912611276e-05, 8.8761131337378174e-05, 6.3293387938756496e-05, 0.0001027417674777098, 0.00011036901560146362, 7.0361085818149149e-05, 0.00013183857663534582, 9.1945687017869204e-05, 7.0200308982748538e-05, 8.2675338489934802e-05, 7.1306028985418379e-05, 0.00011078878014814109, 7.7437449363060296e-05, 0.00023989587498363107, 0.00030292276642285287, 0.00010405345528852195, 7.2986869781743735e-05, 7.9072131484281272e-05, 0.00012666510883718729, 0.00028059812029823661, 0.00028169419965706766, 7.2769100370351225e-05, 7.6093136158306152e-05, 0.00014059750537853688, 0.00022474565776064992, 6.3309707911685109e-05, 0.0001072360755642876, 8.3251252362970263e-05, 0.0001093649843824096, 0.00018147307855542749, 6.5706750319804996e-05, 0.00016631575999781489, 0.00011237535363761708, 8.4518535004463047e-05, 7.1661896072328091e-05, 0.00010978419595630839, 0.00013075000606477261, 0.00012049121141899377, 6.6714950662571937e-05, 7.3403658461757004e-05, 0.00012233150482643396, 0.00017155057867057621, 8.0278849054593593e-05, 6.558949826285243e-05, 0.00010671743075363338, } };
const TfArray<48, int> quant25_zero = { 48, { 0,0,0,0,0,0,0,0,0,0,0,0,0,0,0,0,0,0,0,0,0,0,0,0,0,0,0,0,0,0,0,0,0,0,0,0,0,0,0,0,0,0,0,0,0,0,0,0 } };
const TfLiteAffineQuantization quant25 = { (TfLiteFloatArray*)&quant25_scale, (TfLiteIntArray*)&quant25_zero, 0 };
const ALIGN(16) int8_t tensor_data26[8*1*1*48] = { 
  /* [0][0][][] */ 1,-15,117,72,8,2,18,6,60,45,5,25,-11,-127,47,50,-3,-33,-7,-112,-31,-68,-76,107,-6,-14,55,-61,-78,8,-13,33,-77,20,90,120,41,-10,-21,61,-105,32,15,-68,14,4,-64,-22, 
  /* [1][0][][] */ -49,127,12,83,-67,-1,41,-59,-61,-9,-17,-25,-5,53,36,4,-35,-2,-33,-12,-7,-27,31,-47,-17,28,28,-8,21,2,-86,66,54,14,-85,21,-56,28,-29,29,-68,-26,35,59,-6,-6,-10,17, 
  /* [2][0][][] */ -46,1,-27,-21,-7,127,-13,-35,55,17,83,-66,80,15,109,-120,-44,-43,-66,86,-67,34,4,-1,-75,-36,-79,3,-112,-20,-83,-8,57,87,-94,9,17,16,-9,-21,80,48,-36,24,12,48,-18,-44, 
  /* [3][0][][] */ -25,13,21,-15,-30,-47,14,-127,-47,46,27,20,13,-33,-33,-42,4,38,-15,-9,94,4,-18,19,59,-1,-38,-24,-44,-8,29,7,-7,2,24,-1,14,-3,12,-3,-10,3,-28,-39,1,54,12,-64, 
  /* [4][0][][] */ 43,-2,-36,-19,15,-8,-32,-29,-17,6,-31,127,55,-44,-15,-50,-52,-5,-60,-51,7,42,7,59,16,26,-28,-11,103,-44,-16,10,47,53,46,-81,-63,107,51,37,63,-22,-84,-52,13,98,-10,-74, 
  /* [5][0][][] */ -7,2,-32,-49,-127,-27,46,-23,-7,21,6,-12,16,1,29,12,-41,-47,-55,-20,-63,-32,8,0,5,19,-49,-60,-15,-20,-49,60,24,-37,-26,-73,13,-52,37,5,30,13,-26,-39,13,63,-34,-39, 
  /* [6][0][][] */ -127,-1,26,67,57,-61,-51,50,-17,-48,-24,-37,-11,-73,-78,79,37,-2,43,0,-49,16,18,19,51,-27,10,-53,-81,7,59,-9,23,70,-93,31,-34,35,-48,-79,-76,-33,14,55,44,48,-73,-36, 
  /* [7][0][][] */ -69,-57,43,-35,-48,-42,38,17,5,70,-17,-25,-60,28,21,-127,10,-10,50,-2,-21,15,-94,2,-56,71,-76,-45,53,101,28,-42,-69,41,-60,60,24,-30,-11,32,-13,69,72,32,-13,42,12,-24, 
};
const TfArray<4, int> tensor_dimension26 = { 4, { 8,1,1,48 } };
const TfArray<8, float> quant26_scale = { 8, { 0.0050402521155774593, 0.0072116157971322536, 0.0047616409137845039, 0.008063039742410183, 0.0058300676755607128, 0.006213972344994545, 0.0046470263041555882, 0.0057320692576467991, } };
const TfArray<8, int> quant26_zero = { 8, { 0,0,0,0,0,0,0,0 } };
const TfLiteAffineQuantization quant26 = { (TfLiteFloatArray*)&quant26_scale, (TfLiteIntArray*)&quant26_zero, 0 };
const ALIGN(16) int32_t tensor_data27[8] = { 10385, -2200, 9499, 7308, -2480, 21795, 1696, 4697, };
const TfArray<1, int> tensor_dimension27 = { 1, { 8 } };
const TfArray<8, float> quant27_scale = { 8, { 0.00010675845260266215, 0.00015275047917384654, 0.00010085714166052639, 0.00017078463861253113, 0.00012348766904324293, 0.00013161922106519341, 9.8429467470850796e-05, 0.00012141195475123823, } };
const TfArray<8, int> quant27_zero = { 8, { 0,0,0,0,0,0,0,0 } };
const TfLiteAffineQuantization quant27 = { (TfLiteFloatArray*)&quant27_scale, (TfLiteIntArray*)&quant27_zero, 0 };
const ALIGN(16) int8_t tensor_data28[48*1*1*8] = { 
  /* [0][0][][] */ -5,5,70,40,-127,-91,68,-96, 
  /* [1][0][][] */ 7,-28,20,-10,-9,19,-127,-59, 
  /* [2][0][][] */ 40,-40,21,-127,50,58,54,21, 
  /* [3][0][][] */ -25,49,-50,127,-42,-23,-44,16, 
  /* [4][0][][] */ 37,-127,50,-126,23,12,93,-8, 
  /* [5][0][][] */ 45,-42,32,-127,37,51,40,0, 
  /* [6][0][][] */ -75,-67,57,61,45,127,21,20, 
  /* [7][0][][] */ 127,-11,-28,20,9,-30,-15,-12, 
  /* [8][0][][] */ 60,24,-62,-22,41,-12,-127,12, 
  /* [9][0][][] */ -26,-59,-127,-8,-6,125,23,33, 
  /* [10][0][][] */ 75,-41,-72,1,7,39,-127,-116, 
  /* [11][0][][] */ -34,127,-109,-37,50,19,42,-24, 
  /* [12][0][][] */ 29,-52,-89,1,-52,127,-41,-37, 
  /* [13][0][][] */ -43,77,-22,127,23,-15,-43,-18, 
  /* [14][0][][] */ 59,-19,-48,-14,-2,2,127,73, 
  /* [15][0][][] */ -107,-127,-53,-90,93,-12,-32,-103, 
  /* [16][0][][] */ 127,48,26,0,56,-18,-107,17, 
  /* [17][0][][] */ 54,-27,-71,23,-31,72,-127,-60, 
  /* [18][0][][] */ 28,-11,32,56,127,44,34,-11, 
  /* [19][0][][] */ 24,46,77,-113,64,127,3,-4, 
  /* [20][0][][] */ -16,117,49,-39,3,127,25,-112, 
  /* [21][0][][] */ -3,-16,127,19,-44,-30,89,35, 
  /* [22][0][][] */ -124,-1,9,-6,55,58,106,-127, 
  /* [23][0][][] */ 38,51,50,7,67,-127,-9,8, 
  /* [24][0][][] */ -127,22,-83,92,20,-91,-65,20, 
  /* [25][0][][] */ 23,-127,-29,-41,16,-8,82,113, 
  /* [26][0][][] */ -127,94,-93,-74,76,69,107,-26, 
  /* [27][0][][] */ 62,10,27,-1,-54,0,-127,-41, 
  /* [28][0][][] */ -122,2,56,-2,-127,77,-95,-73, 
  /* [29][0][][] */ 13,-21,5,6,-46,32,-127,-88, 
  /* [30][0][][] */ -44,34,74,19,12,-127,44,-4, 
  /* [31][0][][] */ -52,3,-127,41,-1,-13,-3,10, 
  /* [32][0][][] */ -44,127,-87,-118,103,-3,18,79, 
  /* [33][0][][] */ -87,67,-127,-60,102,46,-13,51, 
  /* [34][0][][] */ 22,35,-23,-19,127,-71,87,-56, 
  /* [35][0][][] */ 41,127,36,54,-24,15,-99,-24, 
  /* [36][0][][] */ 29,46,10,24,20,27,-127,-53, 
  /* [37][0][][] */ 6,93,0,-127,112,34,-120,20, 
  /* [38][0][][] */ 24,18,94,51,-9,27,127,-63, 
  /* [39][0][][] */ 32,14,127,4,-54,-22,-84,-68, 
  /* [40][0][][] */ 127,-25,16,22,122,-101,-11,-11, 
  /* [41][0][][] */ -20,-25,34,10,101,-26,25,127, 
  /* [42][0][][] */ 116,66,-21,-34,-118,127,112,-105, 
  /* [43][0][][] */ -14,10,-33,12,17,53,-127,94, 
  /* [44][0][][] */ -36,43,-20,127,-27,-49,-58,-10, 
  /* [45][0][][] */ -83,-26,127,-41,-1,-23,78,53, 
  /* [46][0][][] */ -39,37,-9,8,-125,68,67,-127, 
  /* [47][0][][] */ 127,-7,10,62,-81,-26,-49,-26, 
};
const TfArray<4, int> tensor_dimension28 = { 4, { 48,1,1,8 } };
const TfArray<48, float> quant28_scale = { 48, { 0.0019328995840623975, 0.0032811663113534451, 0.0028304494917392731, 0.0028123229276388884, 0.0027088921051472425, 0.0029428468551486731, 0.0031958767212927341, 0.004731109831482172, 0.0049848216585814953, 0.0016222628764808178, 0.0032731206156313419, 0.0031980264466255903, 0.0037336759269237518, 0.0013051641872152686, 0.0026895045302808285, 0.0022367741912603378, 0.0048128096386790276, 0.0035052772145718336, 0.004468034952878952, 0.0033328640274703503, 0.0027303600218147039, 0.001294834422878921, 0.0033024470321834087, 0.0039524738676846027, 0.0028298075776547194, 0.0029330961406230927, 0.0022958791814744473, 0.003101385198533535, 0.0031026082579046488, 0.0021894390229135752, 0.003958436194807291, 0.0024908352643251419, 0.0019866663496941328, 0.0022039569448679686, 0.0018303645774722099, 0.0023241611197590828, 0.005114726722240448, 0.0015780456596985459, 0.0028478754684329033, 0.0035333400592207909, 0.0040603396482765675, 0.0047938707284629345, 0.0017957467352971435, 0.0039674686267971992, 0.0027589993551373482, 0.0017264166381210089, 0.0026281510945409536, 0.0040795854292809963, } };
const TfArray<48, int> quant28_zero = { 48, { 0,0,0,0,0,0,0,0,0,0,0,0,0,0,0,0,0,0,0,0,0,0,0,0,0,0,0,0,0,0,0,0,0,0,0,0,0,0,0,0,0,0,0,0,0,0,0,0 } };
const TfLiteAffineQuantization quant28 = { (TfLiteFloatArray*)&quant28_scale, (TfLiteIntArray*)&quant28_zero, 0 };
const ALIGN(16) int32_t tensor_data29[48] = { 11112, 5040, 6803, 6797, 5734, 6287, 4408, 2379, -327, 13816, 1311, 1456, 259, 23164, 6177, 6084, -1759, 2974, 2679, 1925, 6652, 19825, 5860, -2795, 3364, 6443, 8316, 9027, 1853, 10251, -210, 8760, 9526, 8893, 13327, 9548, -449, 17051, 6103, 2152, -697, -339, 8612, 2592, -5808, 12973, 8006, 4023, };
const TfArray<1, int> tensor_dimension29 = { 1, { 48 } };
const TfArray<48, float> quant29_scale = { 48, { 7.6280441135168076e-05, 0.00012948877702001482, 0.00011170157813467085, 0.00011098622780991718, 0.00010690440831240267, 0.00011613725655479357, 0.00012612288992386311, 0.00018670971621759236, 0.00019672226335387677, 6.4021391153801233e-05, 0.00012917126878164709, 0.00012620772758964449, 0.00014734674186911434, 5.1507329771993682e-05, 0.00010613929043756798, 8.8272623543161899e-05, 0.00018993394041899592, 0.00013833315460942686, 0.00017632766684982926, 0.00013152899919077754, 0.00010775162081699818, 5.109967605676502e-05, 0.00013032861170358956, 0.00015598142636008561, 0.00011167624325025827, 0.00011575245298445225, 9.0605157311074436e-05, 0.00012239385978318751, 0.00012244211393408477, 8.6404579633381218e-05, 0.0001562167308293283, 9.8298958619125187e-05, 7.8402306826319546e-05, 8.6977517639752477e-05, 7.2233975515700877e-05, 9.1721281933132559e-05, 0.00020184887398499995, 6.2276398239191622e-05, 0.00011238927982049063, 0.00013944062811788172, 0.00016023826901800931, 0.00018918652494903654, 7.0867805334273726e-05, 0.00015657319454476237, 0.00010888185352087021, 6.8131746957078576e-05, 0.00010371801909059286, 0.00016099779168143868, } };
const TfArray<48, int> quant29_zero = { 48, { 0,0,0,0,0,0,0,0,0,0,0,0,0,0,0,0,0,0,0,0,0,0,0,0,0,0,0,0,0,0,0,0,0,0,0,0,0,0,0,0,0,0,0,0,0,0,0,0 } };
const TfLiteAffineQuantization quant29 = { (TfLiteFloatArray*)&quant29_scale, (TfLiteIntArray*)&quant29_zero, 0 };
const ALIGN(16) int8_t tensor_data30[1*3*3*48] = { 
  /* [0][0][][] */ -54,-12,-5,95,-9,40,31,125,13,-1,-83,27,-59,-99,-52,-27,12,-89,-15,-31,0,-31,-111,42,-4,80,-120,-34,75,10,33,61,-40,16,0,61,-9,-32,20,45,-59,32,69,-30,-58,24,1,-8, 16,19,-127,127,-50,-14,47,23,-10,127,-127,59,-57,-127,-48,-58,4,26,4,47,-127,21,-100,127,-28,127,23,-3,-98,5,23,-32,-4,127,-114,-10,12,-19,30,-9,-85,127,127,80,-15,127,-31,-74, 26,6,2,75,10,-27,15,95,13,3,-73,23,112,-63,-83,-21,4,-67,-16,-35,28,-33,-63,37,7,56,-110,-28,63,-6,-104,-31,37,2,14,-61,-10,-34,-10,49,-72,16,32,-37,32,19,10,-31, 
  /* [0][1][][] */ -127,-57,2,-7,-26,127,42,90,5,-47,87,72,-127,-68,-3,-49,-18,-105,-103,3,-61,3,-127,94,-25,-18,18,-10,-121,127,127,127,-115,-12,-127,127,58,-12,68,17,-120,23,37,25,-52,-11,-24,6, 12,-56,97,23,-127,1,-127,21,-127,-63,101,-35,22,-51,30,127,127,-18,-34,127,-52,127,-15,67,-127,-3,38,127,-122,-102,-31,-20,-5,-89,-76,-1,-127,127,127,-127,127,-11,-97,127,127,-102,-127,-127, 103,127,-13,-20,19,-123,54,127,5,-49,74,82,110,-82,7,-77,-47,-127,-127,3,-59,-21,-60,15,84,-29,-24,-19,-61,-9,-126,-102,127,5,-93,-119,76,-42,56,27,-116,16,26,27,3,-9,16,17, 
  /* [0][2][][] */ -14,-17,-6,-77,9,52,25,97,32,-21,8,-7,-3,-96,-127,-23,-27,-1,0,22,3,-54,-61,-38,30,-76,-127,-37,101,22,67,35,-22,1,16,43,-10,-36,-70,-5,-52,17,-83,41,-51,-13,6,13, 12,-17,39,-126,73,-24,40,-19,-24,50,34,127,-38,10,-20,-37,-56,-61,-24,25,-85,7,-68,56,89,-93,26,11,-127,-26,73,-14,15,-46,-98,-10,-24,5,74,-47,-89,24,-86,-69,-69,-23,3,-7, 28,34,-2,-50,-4,-29,23,80,36,-22,-8,-24,37,-82,-111,-21,-13,-4,5,36,30,-27,-55,-14,-20,-45,-101,-32,100,0,-70,-19,11,2,28,-33,-15,-36,-80,7,-46,10,-70,35,29,-13,3,8, 
};
const TfArray<4, int> tensor_dimension30 = { 4, { 1,3,3,48 } };
const TfArray<48, float> quant30_scale = { 48, { 0.0092826671898365021, 0.011735020205378532, 0.013972418382763863, 0.0052219056524336338, 0.0086911153048276901, 0.010048477910459042, 0.0048747016116976738, 0.002102184109389782, 0.015797177329659462, 0.016289617866277695, 0.0097305513918399811, 0.0034652403555810452, 0.0084083182737231255, 0.0042249062098562717, 0.0040208045393228531, 0.0050469804555177689, 0.014270021580159664, 0.0036279689520597458, 0.0067765549756586552, 0.0051830043084919453, 0.0061395908705890179, 0.021048756316304207, 0.0030483035370707512, 0.011967591010034084, 0.013625537976622581, 0.0059691770002245903, 0.0049608326517045498, 0.011072821915149689, 0.0037204765249043703, 0.017417917028069496, 0.0076066371984779835, 0.011844756081700325, 0.009694177657365799, 0.013915592804551125, 0.0083041498437523842, 0.0079742036759853363, 0.0086403088644146919, 0.010500561445951462, 0.0048288567923009396, 0.011916806921362877, 0.004110321868211031, 0.0054734149016439915, 0.0053349612280726433, 0.007450595498085022, 0.053828306496143341, 0.015790544450283051, 0.010271363891661167, 0.004942174069583416, } };
const TfArray<48, int> quant30_zero = { 48, { 0,0,0,0,0,0,0,0,0,0,0,0,0,0,0,0,0,0,0,0,0,0,0,0,0,0,0,0,0,0,0,0,0,0,0,0,0,0,0,0,0,0,0,0,0,0,0,0 } };
const TfLiteAffineQuantization quant30 = { (TfLiteFloatArray*)&quant30_scale, (TfLiteIntArray*)&quant30_zero, 3 };
const ALIGN(16) int32_t tensor_data31[48] = { 143, -2991, 376, -2243, 9273, -305, 14101, -9169, -17, 660, -1698, -4029, -1420, 63159, 24897, 28507, 604, 21837, 8347, -11260, 11241, -1661, 37950, -936, 11, -347, 13992, 12590, 19901, -2106, 91, -492, -533, -171, 27645, -80, 10922, 19263, -14172, 108, 17584, -4017, 4867, -11651, -21, -830, 12934, 19043, };
const TfArray<1, int> tensor_dimension31 = { 1, { 48 } };
const TfArray<48, float> quant31_scale = { 48, { 0.00012841481657233089, 0.00016234024951700121, 0.00019329204224050045, 7.2238944994751364e-05, 0.0001202313942485489, 0.00013900891644880176, 6.7435787059366703e-05, 2.9081253160256892e-05, 0.0002185354387620464, 0.00022534777235705405, 0.00013461077469401062, 4.7937541239662096e-05, 0.00011631922825472429, 5.8446625189390033e-05, 5.562312071560882e-05, 6.9819063355680555e-05, 0.00019740902644116431, 5.0188700697617605e-05, 9.374570072395727e-05, 7.1700793341733515e-05, 8.493404311593622e-05, 0.00029118487145751715, 4.216970773995854e-05, 0.00016555760521441698, 0.00018849335901904851, 8.2576567365322262e-05, 6.8627305154222995e-05, 0.00015317951329052448, 5.1468432502588257e-05, 0.00024095647677313536, 0.00010522891534492373, 0.00016385831986553967, 0.00013410758401732892, 0.00019250591867603362, 0.00011487818119348958, 0.00011031376197934151, 0.000119528551294934, 0.00014526296581607312, 6.6801578213926405e-05, 0.00016485505329910666, 5.6861485063564032e-05, 7.5718278822023422e-05, 7.3802933911792934e-05, 0.00010307025513611734, 0.00074465153738856316, 0.00021844367438461632, 0.00014209227811079472, 6.8369190557859838e-05, } };
const TfArray<48, int> quant31_zero = { 48, { 0,0,0,0,0,0,0,0,0,0,0,0,0,0,0,0,0,0,0,0,0,0,0,0,0,0,0,0,0,0,0,0,0,0,0,0,0,0,0,0,0,0,0,0,0,0,0,0 } };
const TfLiteAffineQuantization quant31 = { (TfLiteFloatArray*)&quant31_scale, (TfLiteIntArray*)&quant31_zero, 0 };
const ALIGN(16) int8_t tensor_data32[8*1*1*48] = { 
  /* [0][0][][] */ -35,-14,43,-11,48,-28,-127,-36,-61,-35,-44,13,-13,-19,33,2,87,49,31,26,-3,-16,43,1,33,11,-58,124,70,-25,-41,-38,-35,-8,-80,-13,-73,40,17,-27,66,-46,-27,-12,-44,-29,101,-49, 
  /* [1][0][][] */ -19,7,-17,-34,38,-13,46,58,-17,-19,-13,7,11,46,4,-86,17,-22,4,-19,-21,14,31,23,0,-41,8,-31,-5,4,-7,-1,-5,-13,-22,-12,-31,127,-29,-27,7,-3,-16,2,-11,-7,26,17, 
  /* [2][0][][] */ 27,-11,-65,26,7,54,38,53,74,-71,27,44,66,-88,-70,-125,12,-71,-31,-35,8,127,-33,-1,32,-29,41,65,50,30,33,76,56,-49,49,29,-9,28,-4,-63,-11,120,-29,-45,-4,19,45,35, 
  /* [3][0][][] */ 30,24,-19,8,62,27,-47,3,-3,-17,5,29,25,119,6,-29,7,34,-22,-20,-24,-8,-25,-11,2,20,-3,-7,16,37,23,23,25,17,-14,25,-34,-127,-12,18,-5,-2,27,4,33,40,8,-25, 
  /* [4][0][][] */ 80,48,57,46,11,91,-15,8,3,-64,51,-127,63,-20,-36,-55,89,21,-49,63,-53,-44,-28,-16,38,9,63,-69,4,37,82,87,78,69,-62,57,-32,4,-104,39,-78,51,50,50,29,97,1,-57, 
  /* [5][0][][] */ -23,-2,38,33,4,-17,-60,-106,18,58,55,27,-44,-38,1,-52,38,71,15,-36,-98,-5,-82,-33,23,6,1,20,-4,10,28,17,-15,20,99,-27,-44,127,-18,32,-60,-43,51,-61,-86,61,-25,63, 
  /* [6][0][][] */ 31,92,63,-1,-8,57,-61,24,46,-21,4,-39,69,-20,64,26,-49,-21,-59,53,-12,44,-1,18,51,3,58,-127,-3,100,25,56,56,38,-59,41,80,-73,-48,-24,-20,-16,44,19,-6,66,-54,-19, 
  /* [7][0][][] */ -39,-22,-20,-16,22,-31,-22,-47,40,-5,-16,17,-11,30,46,62,-21,-30,29,-31,56,-2,56,-31,-26,11,14,-127,48,-31,-37,-36,-20,-32,-30,-16,11,54,12,33,38,33,-32,-48,-9,-42,75,13, 
};
const TfArray<4, int> tensor_dimension32 = { 4, { 8,1,1,48 } };
const TfArray<8, float> quant32_scale = { 8, { 0.0054348115809261799, 0.0085367336869239807, 0.0039343149401247501, 0.00743142981082201, 0.0071133417077362537, 0.003735068254172802, 0.006412566639482975, 0.0079065347090363503, } };
const TfArray<8, int> quant32_zero = { 8, { 0,0,0,0,0,0,0,0 } };
const TfLiteAffineQuantization quant32 = { (TfLiteFloatArray*)&quant32_scale, (TfLiteIntArray*)&quant32_zero, 0 };
const ALIGN(16) int32_t tensor_data33[8] = { -5033, -8009, -6966, 9073, 4863, -4129, 8578, 412, };
const TfArray<1, int> tensor_dimension33 = { 1, { 8 } };
const TfArray<8, float> quant33_scale = { 8, { 0.0001278779236599803, 0.00020086432050447911, 9.2572117864619941e-05, 0.00017485718126408756, 0.00016737275291234255, 8.7883963715285063e-05, 0.00015088391955941916, 0.00018603610806167126, } };
const TfArray<8, int> quant33_zero = { 8, { 0,0,0,0,0,0,0,0 } };
const TfLiteAffineQuantization quant33 = { (TfLiteFloatArray*)&quant33_scale, (TfLiteIntArray*)&quant33_zero, 0 };
const ALIGN(16) int8_t tensor_data34[48*1*1*8] = { 
  /* [0][0][][] */ 22,-96,-85,-16,60,26,127,29, 
  /* [1][0][][] */ 25,19,28,-56,52,-127,-76,28, 
  /* [2][0][][] */ 37,-32,-11,-127,17,-8,25,8, 
  /* [3][0][][] */ 49,56,-125,-7,127,-14,121,-3, 
  /* [4][0][][] */ 26,127,-126,22,66,-99,109,-6, 
  /* [5][0][][] */ -127,-7,26,86,36,84,29,-126, 
  /* [6][0][][] */ -35,11,-54,127,-24,-16,14,-24, 
  /* [7][0][][] */ 121,-84,127,-12,-54,49,72,-35, 
  /* [8][0][][] */ -16,-23,-14,50,-10,32,-40,-127, 
  /* [9][0][][] */ -26,52,-41,-5,96,127,-103,110, 
  /* [10][0][][] */ -69,-23,21,24,127,-4,77,36, 
  /* [11][0][][] */ 63,-127,-17,6,-93,5,58,6, 
  /* [12][0][][] */ -127,73,-126,-69,103,-3,-54,-39, 
  /* [13][0][][] */ 28,67,-1,-36,-97,61,74,127, 
  /* [14][0][][] */ 1,-85,-112,-32,127,71,-65,13, 
  /* [15][0][][] */ 45,47,127,11,6,20,-19,28, 
  /* [16][0][][] */ -127,24,-88,-1,126,54,-47,0, 
  /* [17][0][][] */ 32,-24,-20,55,-12,127,65,45, 
  /* [18][0][][] */ -127,52,116,12,-74,110,49,122, 
  /* [19][0][][] */ -88,29,-53,7,-55,-127,-39,-75, 
  /* [20][0][][] */ 71,-20,4,-127,-20,68,57,39, 
  /* [21][0][][] */ 15,41,-127,45,-39,124,32,72, 
  /* [22][0][][] */ 127,-112,92,94,0,-88,-87,104, 
  /* [23][0][][] */ -42,58,-20,-6,-34,45,127,43, 
  /* [24][0][][] */ -80,6,37,-28,-118,76,-8,127, 
  /* [25][0][][] */ -54,35,-18,-18,17,-26,26,-127, 
  /* [26][0][][] */ -2,123,107,-49,-42,-114,-127,-111, 
  /* [27][0][][] */ 47,-96,127,32,-121,-2,-40,-68, 
  /* [28][0][][] */ 127,-6,-20,-20,-10,-40,-124,-28, 
  /* [29][0][][] */ 66,20,-15,19,-127,4,-61,6, 
  /* [30][0][][] */ -21,-19,127,-16,-6,-87,-18,-49, 
  /* [31][0][][] */ 84,-39,-4,-2,127,13,85,71, 
  /* [32][0][][] */ -127,59,-97,36,-119,48,38,-61, 
  /* [33][0][][] */ 4,11,45,-127,39,19,-37,-48, 
  /* [34][0][][] */ 69,-41,-127,-19,40,-9,-62,-4, 
  /* [35][0][][] */ 43,98,107,127,-31,36,-101,13, 
  /* [36][0][][] */ -127,30,57,-10,-122,32,71,41, 
  /* [37][0][][] */ -81,22,104,-6,-127,1,-67,2, 
  /* [38][0][][] */ -6,25,127,5,52,-42,103,53, 
  /* [39][0][][] */ 11,127,10,-48,-36,76,-113,-62, 
  /* [40][0][][] */ -111,127,23,-38,-56,68,81,20, 
  /* [41][0][][] */ -45,-58,15,14,-64,-100,51,-127, 
  /* [42][0][][] */ 74,-127,43,-1,60,105,-11,67, 
  /* [43][0][][] */ -70,-94,-97,127,-31,-19,72,3, 
  /* [44][0][][] */ 22,-50,-90,8,-18,-127,-35,-121, 
  /* [45][0][][] */ -8,-6,-113,8,-54,127,-7,-47, 
  /* [46][0][][] */ 27,63,-127,-31,13,86,106,30, 
  /* [47][0][][] */ -97,13,127,0,-49,64,6,77, 
};
const TfArray<4, int> tensor_dimension34 = { 4, { 48,1,1,8 } };
const TfArray<48, float> quant34_scale = { 48, { 0.0025679683312773705, 0.0027363775297999382, 0.0029265230987221003, 0.0020816340111196041, 0.0019551259465515614, 0.0023512092884629965, 0.003123320871964097, 0.0021971848327666521, 0.002844727598130703, 0.002342120511457324, 0.0022320959251374006, 0.0024801557883620262, 0.0030397360678762197, 0.0013721070718020201, 0.0017189361387863755, 0.0025318113621324301, 0.0022985867690294981, 0.003114157821983099, 0.0017759266775101423, 0.0023471813183277845, 0.0030462159775197506, 0.0018219402991235256, 0.0018056483240798116, 0.0022883713245391846, 0.0016714303055778146, 0.0027254563756287098, 0.0014422845561057329, 0.00094506074674427509, 0.0024083591997623444, 0.0035575579386204481, 0.0019896267913281918, 0.0026541091501712799, 0.0015082623576745391, 0.0026297927834093571, 0.00166043930221349, 0.0022297517862170935, 0.0024593446869403124, 0.0014709235401824117, 0.0026220323052257299, 0.0022495402954518795, 0.0020047386642545462, 0.0024446239694952965, 0.0030065183527767658, 0.0024427671451121569, 0.0019420874305069447, 0.0031140150967985392, 0.0017112541245296597, 0.00094545516185462475, } };
const TfArray<48, int> quant34_zero = { 48, { 0,0,0,0,0,0,0,0,0,0,0,0,0,0,0,0,0,0,0,0,0,0,0,0,0,0,0,0,0,0,0,0,0,0,0,0,0,0,0,0,0,0,0,0,0,0,0,0 } };
const TfLiteAffineQuantization quant34 = { (TfLiteFloatArray*)&quant34_scale, (TfLiteIntArray*)&quant34_zero, 0 };
const ALIGN(16) int32_t tensor_data35[48] = { -254, 3463, 4797, 856, 3225, -855, 3680, 5760, 3380, -1495, 5390, -5052, -1227, 10860, 8650, 5238, 5937, 2177, -4779, -3500, -2045, -6603, 6017, 4275, 8123, 4519, -6775, 18501, 1298, 48, 7126, 701, 9537, 4817, 9206, 3718, -71, 10678, -110, 3392, 5546, 2385, 2100, -501, 6005, 943, 6950, 17645, };
const TfArray<1, int> tensor_dimension35 = { 1, { 48 } };
const TfArray<48, float> quant35_scale = { 48, { 0.00014407561684492975, 0.00015352418995462358, 0.00016419228632003069, 0.00011678987357299775, 0.00010969214781653136, 0.00013191436300985515, 0.00017523361020721495, 0.00012327283911872655, 0.00015960316522978246, 0.00013140444934833795, 0.00012523152690846473, 0.00013914889132138342, 0.00017054409545380622, 7.6981930760666728e-05, 9.6440744528081268e-05, 0.0001420470216544345, 0.00012896198313683271, 0.00017471952014602721, 9.9638193205464631e-05, 0.00013168837176635861, 0.00017090764595195651, 0.00010221978300251067, 0.00010130571899935603, 0.00012838885595556349, 9.3775430286768824e-05, 0.00015291146701201797, 8.0919235188048333e-05, 5.3022540669189766e-05, 0.00013512076111510396, 0.00019959644123446196, 0.00011162781447637826, 0.00014890854072291404, 8.4620915004052222e-05, 0.00014754426956642419, 9.3158785603009164e-05, 0.00012510000669863075, 0.00013798128929920495, 8.252602128777653e-05, 0.00014710886171087623, 0.000126210245070979, 0.00011247566726524383, 0.00013715539535041898, 0.00016868041711859405, 0.00013705121818929911, 0.00010896062303800136, 0.00017471151659265161, 9.6009745902847499e-05, 5.3044670494273305e-05, } };
const TfArray<48, int> quant35_zero = { 48, { 0,0,0,0,0,0,0,0,0,0,0,0,0,0,0,0,0,0,0,0,0,0,0,0,0,0,0,0,0,0,0,0,0,0,0,0,0,0,0,0,0,0,0,0,0,0,0,0 } };
const TfLiteAffineQuantization quant35 = { (TfLiteFloatArray*)&quant35_scale, (TfLiteIntArray*)&quant35_zero, 0 };
const ALIGN(16) int8_t tensor_data36[1*3*3*48] = { 
  /* [0][0][][] */ 68,-4,-33,-77,12,22,-72,34,22,36,-79,28,37,-19,-76,12,-127,54,26,104,-18,34,-28,-51,35,-13,4,48,9,18,-20,80,11,62,-2,21,-95,1,18,-121,-8,-50,1,-25,-59,-30,51,-78, 68,18,-127,-20,127,12,-127,21,-31,2,-46,127,60,14,-83,127,-62,48,-127,127,69,85,-72,-49,-29,-37,127,-15,127,127,-91,127,127,-95,2,-11,-56,-127,5,-24,28,-127,-5,-4,3,127,61,66, 35,-15,-33,-84,-14,11,-46,3,19,44,-127,-21,32,37,-56,0,-68,40,17,49,-32,-118,-12,-43,31,-8,-29,52,-14,8,-21,47,7,28,5,25,-57,22,-8,-127,-1,2,-11,-23,37,-45,3,-93, 
  /* [0][1][][] */ 31,37,-107,-13,51,12,-29,30,-68,45,-70,73,66,-124,-127,30,-101,52,-31,117,-39,50,-29,-73,18,-18,93,-18,104,57,19,66,-96,-84,109,11,-66,-85,115,-38,83,-94,-127,-26,-9,-14,20,-1, -127,127,-53,103,-37,127,54,-127,127,127,-123,46,127,6,111,-15,-102,-127,73,-46,110,75,127,-127,-127,21,52,-127,10,55,-32,42,32,-127,69,127,-80,80,-108,-104,68,-64,-114,127,-17,66,95,56, 15,15,-92,-36,49,16,-4,-56,-32,27,12,-25,44,127,-85,35,-25,44,-18,78,-56,-127,-29,-1,7,-16,60,-21,73,63,24,94,-110,-80,67,1,-21,-90,127,35,79,-55,-126,-22,127,-28,-64,-3, 
  /* [0][2][][] */ 5,10,-3,-123,24,-10,-21,-10,-6,21,-33,-8,14,3,4,-9,7,38,4,30,-73,-85,-22,91,28,37,20,42,70,64,-8,30,50,18,-78,0,-127,-45,26,-56,-108,-19,-28,-30,-43,-8,-19,-26, 6,-23,-26,-53,-5,-9,-44,-65,8,-3,20,0,18,8,22,0,5,35,57,21,-127,-115,-32,109,-32,127,42,-27,112,96,127,90,-28,-94,-127,23,-78,-92,6,92,-127,-11,-3,-29,40,87,-127,127, 1,4,-18,-127,13,-7,-9,-51,12,19,-80,-29,-9,2,-16,-10,35,25,0,-16,-82,42,-16,41,27,20,9,47,51,47,-1,-6,29,-17,-45,-2,-62,-34,-27,-69,-96,26,-43,-27,51,-31,-16,-8, 
};
const TfArray<4, int> tensor_dimension36 = { 4, { 1,3,3,48 } };
const TfArray<48, float> quant36_scale = { 48, { 0.0082892784848809242, 0.011148725636303425, 0.0044097327627241611, 0.003756482619792223, 0.011323588900268078, 0.0083583975210785866, 0.0035207332111895084, 0.004650516901165247, 0.01402628980576992, 0.0091595333069562912, 0.0045566372573375702, 0.017581960186362267, 0.0061346925795078278, 0.0095064472407102585, 0.0040111811831593513, 0.0098919328302145004, 0.0028277139645069838, 0.006930910050868988, 0.019204018637537956, 0.0062918481417000294, 0.010095847770571709, 0.021712398156523705, 0.0062573598697781563, 0.0059163332916796207, 0.011240578256547451, 0.0065366826020181179, 0.012577380985021591, 0.012726765125989914, 0.0037265114951878786, 0.0049889450892806053, 0.01197841577231884, 0.0035586708690971136, 0.010297323577105999, 0.0042036185041069984, 0.01026950404047966, 0.0098379291594028473, 0.0037030298262834549, 0.0066215232945978642, 0.006876776460558176, 0.0033284907694905996, 0.005591981578618288, 0.0036060870625078678, 0.0035282643511891365, 0.0066487835720181465, 0.0072187273763120174, 0.0080739157274365425, 0.0067389192990958691, 0.011548480018973351, } };
const TfArray<48, int> quant36_zero = { 48, { 0,0,0,0,0,0,0,0,0,0,0,0,0,0,0,0,0,0,0,0,0,0,0,0,0,0,0,0,0,0,0,0,0,0,0,0,0,0,0,0,0,0,0,0,0,0,0,0 } };
const TfLiteAffineQuantization quant36 = { (TfLiteFloatArray*)&quant36_scale, (TfLiteIntArray*)&quant36_zero, 3 };
const ALIGN(16) int32_t tensor_data37[48] = { 3035, -8162, 26255, 24403, -6074, 272, 33473, 18494, -3383, -10643, 23230, -2246, -15821, -5888, 34383, -5066, 36841, 2259, -415, -8493, -334, -16, 20234, 3946, 7613, 2124, -6472, 7243, -5621, -24437, 31, -18474, 819, 22571, -3743, -6957, 18048, 20239, 4443, 23643, 7010, 19251, 16867, 13775, -10074, -9219, 8342, -8481, };
const TfArray<1, int> tensor_dimension37 = { 1, { 48 } };
const TfArray<48, float> quant37_scale = { 48, { 0.00013365509221330285, 0.00017976040544454008, 7.1101880166679621e-05, 6.0568967455765232e-05, 0.00018257986812386662, 0.00013476956519298255, 5.6767781643429771e-05, 7.4984243838116527e-05, 0.00022615781927015632, 0.00014768695109523833, 7.3470546340104192e-05, 0.0002834889164660126, 9.8914875707123429e-05, 0.00015328054723795503, 6.4675688918214291e-05, 0.00015949606313370168, 4.5593642425956205e-05, 0.00011175296822329983, 0.00030964275356382132, 0.00010144882980966941, 0.00016278395196422935, 0.0003500875027384609, 0.00010089274292113259, 9.5394083473365754e-05, 0.00018124141206499189, 0.00010539650247665122, 0.0002027958253165707, 0.00020520447287708521, 6.0085720178904012e-05, 8.0441008321940899e-05, 0.00019313819939270616, 5.7379482313990593e-05, 0.00016603252151980996, 6.7778521042782813e-05, 0.00016558395873289555, 0.00015862530563026667, 5.9707104810513556e-05, 0.00010676446254365146, 0.00011088012252002954, 5.3668092732550576e-05, 9.0164285211358219e-05, 5.8144014474237338e-05, 5.6889210100052878e-05, 0.00010720400314312428, 0.00011639369040494785, 0.00013018262689001858, 0.00010865733929676935, 0.00018620598712004721, } };
const TfArray<48, int> quant37_zero = { 48, { 0,0,0,0,0,0,0,0,0,0,0,0,0,0,0,0,0,0,0,0,0,0,0,0,0,0,0,0,0,0,0,0,0,0,0,0,0,0,0,0,0,0,0,0,0,0,0,0 } };
const TfLiteAffineQuantization quant37 = { (TfLiteFloatArray*)&quant37_scale, (TfLiteIntArray*)&quant37_zero, 0 };
const ALIGN(16) int8_t tensor_data38[8*1*1*48] = { 
  /* [0][0][][] */ -24,99,-14,-25,62,70,49,33,-59,28,5,13,6,24,-90,-42,80,119,15,62,-15,7,-127,24,-22,-2,-87,104,-59,-55,21,57,-20,18,-22,94,117,-70,-36,-40,-62,65,-19,40,5,-44,60,-75, 
  /* [1][0][][] */ -100,8,10,8,88,-57,-55,-14,6,-38,14,-15,119,29,35,-38,-59,40,-2,-42,-35,-33,71,-82,85,16,-78,-47,-33,95,13,84,-56,5,-57,31,-30,-69,39,-4,-18,1,8,127,-16,32,101,-67, 
  /* [2][0][][] */ -22,42,41,16,-26,-19,-7,27,-62,-41,-46,5,14,-33,116,-127,64,31,-39,-19,23,-36,37,-16,-21,74,10,68,3,-19,-84,47,-42,52,-111,-11,-34,18,107,-58,44,-9,12,37,11,61,0,-6, 
  /* [3][0][][] */ -22,-40,9,49,-6,-40,-127,31,-29,-69,-96,38,-58,1,95,2,-11,101,46,-20,20,48,-92,48,-58,-5,-32,-24,-29,-114,38,-54,-3,-98,-53,44,-15,59,16,12,20,-8,-43,-76,12,27,-67,-29, 
  /* [4][0][][] */ 29,79,46,86,5,-50,-18,-77,-64,-49,-15,6,26,-78,-80,-55,30,35,7,-57,18,-8,127,45,-81,-32,14,-33,-81,13,9,23,-38,6,-15,-53,-41,80,52,-2,45,68,49,17,-18,91,-73,5, 
  /* [5][0][][] */ -57,-29,87,46,-28,-56,82,72,38,48,-49,14,-53,15,-17,-9,-54,127,28,-4,73,21,20,31,-28,-32,-80,-68,42,-127,53,-15,20,-19,-35,39,-5,66,-27,-26,67,2,-8,102,78,8,-34,21, 
  /* [6][0][][] */ 60,-22,66,9,29,-88,105,1,42,-93,-58,48,31,-8,59,26,-59,27,53,-39,84,47,52,8,3,-50,24,-57,-31,-59,40,-70,2,-49,-47,-64,-60,40,44,82,-4,25,-27,-67,-19,31,-31,-127, 
  /* [7][0][][] */ 21,127,-58,-107,74,125,-12,-53,-8,72,-8,-33,-14,2,97,-45,62,88,-54,40,-42,-8,-73,32,48,116,-12,-64,-47,18,-27,0,-6,-19,-42,98,56,-30,11,-5,-9,48,-19,-54,82,-32,32,-20, 
};
const TfArray<4, int> tensor_dimension38 = { 4, { 8,1,1,48 } };
const TfArray<8, float> quant38_scale = { 8, { 0.0042620659805834293, 0.0050389375537633896, 0.0045885895378887653, 0.0046669556759297848, 0.011049633845686913, 0.0055450638756155968, 0.0065520270727574825, 0.0039092721417546272, } };
const TfArray<8, int> quant38_zero = { 8, { 0,0,0,0,0,0,0,0 } };
const TfLiteAffineQuantization quant38 = { (TfLiteFloatArray*)&quant38_scale, (TfLiteIntArray*)&quant38_zero, 0 };
const ALIGN(16) int32_t tensor_data39[8] = { -6008, -11373, -16038, 16392, -2426, -12607, -4907, -6871, };
const TfArray<1, int> tensor_dimension39 = { 1, { 8 } };
const TfArray<8, float> quant39_scale = { 8, { 0.00010028390533989295, 0.00011856323544634506, 0.00010796681453939527, 0.00010981072409776971, 0.00025999138597398996, 0.00013047209358774126, 0.00015416534733958542, 9.1982874437235296e-05, } };
const TfArray<8, int> quant39_zero = { 8, { 0,0,0,0,0,0,0,0 } };
const TfLiteAffineQuantization quant39 = { (TfLiteFloatArray*)&quant39_scale, (TfLiteIntArray*)&quant39_zero, 0 };
const ALIGN(16) int8_t tensor_data40[48*1*1*8] = { 
  /* [0][0][][] */ 15,-18,94,-66,-55,127,-8,112, 
  /* [1][0][][] */ -61,-22,44,17,7,13,72,127, 
  /* [2][0][][] */ 38,19,-11,42,59,-127,82,16, 
  /* [3][0][][] */ 74,32,-36,80,127,123,81,-59, 
  /* [4][0][][] */ -73,96,-127,-55,59,17,50,60, 
  /* [5][0][][] */ 34,5,63,-127,8,66,46,-53, 
  /* [6][0][][] */ 72,28,-30,7,29,-56,127,-52, 
  /* [7][0][][] */ -80,39,-56,127,46,-74,-87,-19, 
  /* [8][0][][] */ 50,11,100,53,-1,57,21,-127, 
  /* [9][0][][] */ 29,-86,127,48,-23,-11,-39,-30, 
  /* [10][0][][] */ 121,-87,-32,94,117,74,89,127, 
  /* [11][0][][] */ -6,-105,17,-40,14,10,-32,127, 
  /* [12][0][][] */ 60,-29,-76,5,114,127,-32,-50, 
  /* [13][0][][] */ -65,-58,31,-72,41,-3,-127,28, 
  /* [14][0][][] */ 86,66,127,-116,-42,92,64,-116, 
  /* [15][0][][] */ -65,127,81,-107,10,-3,-24,94, 
  /* [16][0][][] */ -73,76,61,37,127,23,-38,16, 
  /* [17][0][][] */ -20,-8,-10,-62,-20,-127,-87,-68, 
  /* [18][0][][] */ 40,-81,76,81,52,-97,-36,-127, 
  /* [19][0][][] */ 31,-70,127,39,-30,-20,-25,-41, 
  /* [20][0][][] */ -28,127,-51,95,40,79,-16,53, 
  /* [21][0][][] */ -20,83,-31,-127,50,96,60,-52, 
  /* [22][0][][] */ 75,-28,40,-127,-25,96,80,-3, 
  /* [23][0][][] */ 26,-54,-109,42,28,7,3,-127, 
  /* [24][0][][] */ -15,-49,7,-127,65,-29,27,-4, 
  /* [25][0][][] */ 127,24,58,-13,50,47,-84,-23, 
  /* [26][0][][] */ -21,69,-34,-56,21,-24,-88,-127, 
  /* [27][0][][] */ -46,75,-127,-52,40,31,34,60, 
  /* [28][0][][] */ 110,-30,127,-47,-52,17,-19,-18, 
  /* [29][0][][] */ -127,15,-33,-6,11,-10,82,22, 
  /* [30][0][][] */ -114,37,46,-19,-34,18,127,53, 
  /* [31][0][][] */ 8,53,86,63,59,-21,-127,-33, 
  /* [32][0][][] */ -127,-38,28,-14,80,52,-61,74, 
  /* [33][0][][] */ -52,-127,-78,44,81,39,98,13, 
  /* [34][0][][] */ -37,64,-32,65,26,110,121,-127, 
  /* [35][0][][] */ -26,83,-14,38,14,103,123,-127, 
  /* [36][0][][] */ -13,65,-58,18,127,-119,-62,-80, 
  /* [37][0][][] */ 34,101,-79,-65,-79,33,127,-108, 
  /* [38][0][][] */ -43,98,-127,-74,29,-1,-41,58, 
  /* [39][0][][] */ 56,-72,56,-127,23,63,90,-3, 
  /* [40][0][][] */ 127,83,19,-100,33,19,-13,-26, 
  /* [41][0][][] */ 68,-44,31,-127,27,77,99,-26, 
  /* [42][0][][] */ 44,-62,20,17,40,68,18,-127, 
  /* [43][0][][] */ -123,-65,-125,-39,9,-67,127,5, 
  /* [44][0][][] */ 41,-127,-28,44,51,-22,91,30, 
  /* [45][0][][] */ -39,48,101,21,78,-127,37,17, 
  /* [46][0][][] */ -127,-1,10,-27,26,49,-9,-11, 
  /* [47][0][][] */ -29,-63,-38,-19,-9,127,-107,21, 
};
const TfArray<4, int> tensor_dimension40 = { 4, { 48,1,1,8 } };
const TfArray<48, float> quant40_scale = { 48, { 0.0031462407205253839, 0.003167914692312479, 0.0025768079794943333, 0.00065444764913991094, 0.00214943359605968, 0.0024118018336594105, 0.0025137204211205244, 0.0020148851908743382, 0.0029253701213747263, 0.003028699429705739, 0.00044721088488586247, 0.0023354364093393087, 0.0022172166500240564, 0.002296623308211565, 0.0011635677656158805, 0.0026815647725015879, 0.0019510691054165363, 0.00096022873185575008, 0.0021277533378452063, 0.0033675190061330795, 0.0022401406895369291, 0.0020200922153890133, 0.0025736435782164335, 0.0030252404976636171, 0.0022904328070580959, 0.002198010915890336, 0.0029568360187113285, 0.0030129430815577507, 0.0027244125958532095, 0.003220852930098772, 0.0018757679499685764, 0.0027095561381429434, 0.0025593242608010769, 0.0017653671093285084, 0.0019949579145759344, 0.0017173539381474257, 0.0026248677168041468, 0.0014737216988578439, 0.001981652807444334, 0.002852654317393899, 0.0023291786201298237, 0.0025344584137201309, 0.0031466851942241192, 0.0022239263635128736, 0.0011410260340198874, 0.0024689948186278343, 0.0032388973049819469, 0.0023912217002362013, } };
const TfArray<48, int> quant40_zero = { 48, { 0,0,0,0,0,0,0,0,0,0,0,0,0,0,0,0,0,0,0,0,0,0,0,0,0,0,0,0,0,0,0,0,0,0,0,0,0,0,0,0,0,0,0,0,0,0,0,0 } };
const TfLiteAffineQuantization quant40 = { (TfLiteFloatArray*)&quant40_scale, (TfLiteIntArray*)&quant40_zero, 0 };
const ALIGN(16) int32_t tensor_data41[48] = { -1060, -432, -1182, 24033, 5361, -4940, 598, -4459, -2790, -1657, -5695, 5197, 2359, -592, 13057, 930, 6421, 16712, -4768, 1611, 4315, 5768, 4314, 166, 5776, -4290, 1047, -1465, 4336, 871, 5522, 1811, 560, 6642, 1712, 5773, 3866, 7739, 6210, -2656, 3144, 3239, -2051, 1147, -5183, 60, 1949, 10, };
const TfArray<1, int> tensor_dimension41 = { 1, { 48 } };
const TfArray<48, float> quant41_scale = { 48, { 0.00019081345817539841, 0.00019212794722989202, 0.00015627846005372703, 3.9690992707619444e-05, 0.00013035902520641685, 0.00014627115160692483, 0.00015245231043081731, 0.00012219892232678831, 0.00017741808551363647, 0.00018368480959907174, 2.7122481697006151e-05, 0.00014163972809910774, 0.00013446992670651525, 0.00013928579573985189, 7.0568152295891196e-05, 0.00016263175348285586, 0.00011832859308924526, 5.8236029872205108e-05, 0.0001290441578021273, 0.00020423356909304857, 0.00013586023123934865, 0.0001225147134391591, 0.0001560865348437801, 0.0001834750291891396, 0.00013891035632696003, 0.00013330514775589108, 0.0001793264236766845, 0.00018272921442985535, 0.00016523039084859192, 0.00019533855083864182, 0.00011376172187738121, 0.00016432937991339713, 0.00015521810564678162, 0.00010706612374633551, 0.0001209903639391996, 0.00010415422002552077, 0.00015919319412205368, 8.9378394477535039e-05, 0.00012018343841191381, 0.00017300801118835807, 0.00014126021414995193, 0.00015371003246400505, 0.00019084040832240134, 0.00013487687101587653, 6.9201036239974201e-05, 0.00014973978977650404, 0.00019643289851956069, 0.00014502300473395735, } };
const TfArray<48, int> quant41_zero = { 48, { 0,0,0,0,0,0,0,0,0,0,0,0,0,0,0,0,0,0,0,0,0,0,0,0,0,0,0,0,0,0,0,0,0,0,0,0,0,0,0,0,0,0,0,0,0,0,0,0 } };
const TfLiteAffineQuantization quant41 = { (TfLiteFloatArray*)&quant41_scale, (TfLiteIntArray*)&quant41_zero, 0 };
const ALIGN(16) int8_t tensor_data42[1*3*3*48] = { 
  /* [0][0][][] */ 77,74,-127,-102,-94,125,109,112,96,88,91,-64,78,29,-86,94,30,92,-97,-90,-102,-62,-99,63,76,66,120,94,119,94,-1,-115,-88,-94,65,-75,-97,-69,-66,77,-72,-127,37,-89,52,-99,96,94, 91,88,-124,-118,-87,127,127,120,107,90,98,-80,127,29,-98,112,58,127,-99,-109,-113,-82,-110,91,101,99,110,108,-31,127,44,-122,-99,-78,79,-76,-113,-84,-92,78,-83,17,29,-96,62,-117,107,98, 28,22,-92,-18,-41,21,50,0,37,33,41,-20,51,6,-27,33,32,63,-23,-19,-38,-22,-25,35,38,54,72,37,-92,55,10,-49,-22,-33,35,-29,-49,-50,-11,25,-29,76,9,-34,33,-51,47,48, 
  /* [0][1][][] */ 113,105,-126,-98,-127,108,125,127,112,127,101,-103,56,50,-117,103,78,-60,-121,-111,-126,-108,-127,96,91,94,127,116,127,85,-120,-127,-112,-123,106,-124,-106,-108,-84,127,-101,-113,109,-109,89,-109,120,127, 127,127,-123,-127,-109,101,125,91,127,123,127,-127,84,52,-127,127,127,-45,-127,-127,-127,-127,-119,127,127,127,110,127,-54,121,-108,-126,-127,-127,127,-127,-127,-127,-127,117,-127,82,127,-127,127,-127,127,117, 39,39,-74,-1,-50,40,31,4,43,44,52,-29,14,15,-28,52,73,-4,-49,-43,-40,-33,-24,46,50,76,59,44,-95,57,-104,-51,-32,-43,47,-73,-49,-81,-26,36,-45,113,48,-53,65,-47,59,50, 
  /* [0][2][][] */ 59,51,-64,-43,-29,26,21,58,43,82,27,-41,-39,-53,-51,29,35,-90,-63,-50,-52,-24,-43,42,29,64,38,48,45,17,-126,-37,-45,-64,57,-59,-29,-68,-42,83,-40,-56,92,-48,58,-29,37,46, 61,67,-75,-69,-32,27,19,18,35,95,58,-39,-52,-73,-47,40,63,-70,-75,-51,-55,-53,-39,57,48,74,28,55,-20,23,-127,-33,-57,-75,74,-83,-48,-86,-54,88,-62,30,102,-49,79,-37,55,43, 33,28,-20,-5,0,9,-3,46,14,34,21,-12,-17,-127,0,35,41,-47,-25,-27,-39,-11,-8,24,25,46,30,22,-31,17,-91,-14,-19,-11,34,-16,-9,-12,-19,23,-22,68,50,-13,29,1,27,19, 
};
const TfArray<4, int> tensor_dimension42 = { 4, { 1,3,3,48 } };
const TfArray<48, float> quant42_scale = { 48, { 0.0032931461464613676, 0.0034082538913935423, 0.0023945886641740799, 0.0049170074053108692, 0.0033909361809492111, 0.011414460837841034, 0.0025441001635044813, 0.0070937713608145714, 0.0059477938339114189, 0.0048094466328620911, 0.019482197239995003, 0.0041584987193346024, 0.0035136963706463575, 0.0097171328961849213, 0.0041038170456886292, 0.0030349583830684423, 0.0032834378071129322, 0.0090106688439846039, 0.004594879224896431, 0.0027849744074046612, 0.0014690202660858631, 0.0029273098334670067, 0.0026496355421841145, 0.0035646667238324881, 0.0033074133098125458, 0.0047575142234563828, 0.0023924235720187426, 0.0039341170340776443, 0.0055675022304058075, 0.0031155871693044901, 0.0026431488804519176, 0.0030464541632682085, 0.0026844635140150785, 0.002577625447884202, 0.0037672084290534258, 0.0035650557838380337, 0.0019636647775769234, 0.0036528692580759525, 0.0035788482055068016, 0.0040106088854372501, 0.0024132025428116322, 0.0045206504873931408, 0.0041131232865154743, 0.0051007303409278393, 0.020982209593057632, 0.0022738887928426266, 0.0028059405740350485, 0.0034049940295517445, } };
const TfArray<48, int> quant42_zero = { 48, { 0,0,0,0,0,0,0,0,0,0,0,0,0,0,0,0,0,0,0,0,0,0,0,0,0,0,0,0,0,0,0,0,0,0,0,0,0,0,0,0,0,0,0,0,0,0,0,0 } };
const TfLiteAffineQuantization quant42 = { (TfLiteFloatArray*)&quant42_scale, (TfLiteIntArray*)&quant42_zero, 3 };
const ALIGN(16) int32_t tensor_data43[48] = { -5286, 3097, 31130, 41696, 27810, -383, 1839, -262, -1583, -21559, -9, 29338, 113, -5017, 40337, -4656, -10579, 1461, 13482, 42339, 90275, 34689, 39690, -114, -2533, -1822, -12131, -803, 744, -4722, 34906, 28458, 48153, 40687, -16382, 28216, 64406, 23565, 33045, -598, 40509, -4327, -305, 14609, -266, 44990, -14136, -8986, };
const TfArray<1, int> tensor_dimension43 = { 1, { 48 } };
const TfArray<48, float> quant43_scale = { 48, { 5.6107986893039197e-05, 5.806917033623904e-05, 4.0798538975650445e-05, 8.3775026723742485e-05, 5.7774115703068674e-05, 0.0001944773830473423, 4.3345888116164133e-05, 0.00012086230708518997, 0.00010133736213902012, 8.1942424003500491e-05, 0.00033193393028341234, 7.0851696364115924e-05, 5.9865680668735877e-05, 0.00016555863840039819, 6.9920046371407807e-05, 5.1709033868974075e-05, 5.5942578910617158e-05, 0.00015352203627116978, 7.8286662755999714e-05, 4.7449855628656223e-05, 2.5028883101185784e-05, 4.9874939577421173e-05, 4.5143977331463248e-05, 6.0734102589776739e-05, 5.6351069360971451e-05, 8.1057609349954873e-05, 4.0761649870546535e-05, 6.7028726334683597e-05, 9.485802729614079e-05, 5.3082774684298784e-05, 4.5033459173282608e-05, 5.1904899009969085e-05, 4.5737371692666784e-05, 4.3917083530686796e-05, 6.4184969232883304e-05, 6.0740730987163261e-05, 3.3456541132181883e-05, 6.2236882513388991e-05, 6.097572622820735e-05, 6.8331981310620904e-05, 4.1115679778158665e-05, 7.7021970355417579e-05, 7.0078604039736092e-05, 8.6905260104686022e-05, 0.00035749084781855345, 3.8742076867492869e-05, 4.7807072405703366e-05, 5.8013632951769978e-05, } };
const TfArray<48, int> quant43_zero = { 48, { 0,0,0,0,0,0,0,0,0,0,0,0,0,0,0,0,0,0,0,0,0,0,0,0,0,0,0,0,0,0,0,0,0,0,0,0,0,0,0,0,0,0,0,0,0,0,0,0 } };
const TfLiteAffineQuantization quant43 = { (TfLiteFloatArray*)&quant43_scale, (TfLiteIntArray*)&quant43_zero, 0 };
const ALIGN(16) int8_t tensor_data44[8*1*1*48] = { 
  /* [0][0][][] */ 18,-90,-10,71,-69,27,-33,5,-86,-8,-70,73,-22,-37,1,-89,-66,-30,-26,13,50,-52,-12,127,-17,-39,66,94,24,122,-63,-73,26,-21,102,-90,100,-31,-58,19,74,9,-10,-54,20,91,119,29, 
  /* [1][0][][] */ 23,-52,60,3,-33,28,-71,-10,35,-91,6,-14,37,47,-25,66,69,-25,37,84,34,-57,-64,-27,29,83,-19,127,-6,-69,30,30,-38,20,-93,75,-46,-3,-92,25,-127,19,26,52,-90,36,-45,71, 
  /* [2][0][][] */ -52,38,-68,-17,-39,-60,30,11,-32,-122,55,-24,-13,-29,62,-51,29,-10,6,127,23,64,78,40,67,-18,-45,87,9,24,5,3,26,-7,-35,32,-34,25,6,-110,40,-49,-22,-1,45,17,-26,-4, 
  /* [3][0][][] */ 19,3,28,-39,-8,-3,-27,43,19,23,30,31,25,-9,1,10,29,44,14,-4,-124,5,48,-13,-127,11,7,2,5,-33,19,22,-37,-6,39,-28,6,9,19,-55,-16,-21,10,22,-33,-13,12,48, 
  /* [4][0][][] */ 13,126,-4,29,-68,12,4,-3,-5,-72,16,7,-30,-47,-47,71,42,19,41,87,-91,0,3,-127,11,-58,-69,64,-4,51,-69,-1,31,-23,-34,39,115,9,-26,31,37,8,-51,39,-33,-30,49,-31, 
  /* [5][0][][] */ 21,-56,12,127,-48,-21,29,46,-1,10,-98,27,-63,38,36,33,-25,-63,-45,-51,40,12,27,-22,-23,52,29,-29,9,87,-65,-17,58,99,-43,18,-50,-24,-85,-55,-29,-22,-39,-23,-12,36,-28,-16, 
  /* [6][0][][] */ 57,46,22,-13,-16,-22,-10,3,-37,-18,49,-73,-11,-30,53,-59,-54,11,-37,50,56,34,-58,-47,-56,63,-33,24,9,-29,-14,-48,127,-39,-23,7,65,55,21,-10,0,7,-46,-53,52,94,-22,24, 
  /* [7][0][][] */ -55,-35,-15,-18,-41,24,127,-3,8,16,50,8,-32,-60,-80,-24,-3,21,-39,-29,9,-35,-13,-29,-82,62,-29,1,20,11,-15,-32,71,19,44,-69,27,-80,-19,-22,-7,24,15,-47,6,0,-95,-77, 
};
const TfArray<4, int> tensor_dimension44 = { 4, { 8,1,1,48 } };
const TfArray<8, float> quant44_scale = { 8, { 0.0047372723929584026, 0.0049207676202058792, 0.0060970447957515717, 0.0079140001907944679, 0.0053215264342725277, 0.0052792155183851719, 0.006810325663536787, 0.0065435254946351051, } };
const TfArray<8, int> quant44_zero = { 8, { 0,0,0,0,0,0,0,0 } };
const TfLiteAffineQuantization quant44 = { (TfLiteFloatArray*)&quant44_scale, (TfLiteIntArray*)&quant44_zero, 0 };
const ALIGN(16) int32_t tensor_data45[8] = { -15083, 391, -20688, 14994, -10010, 3797, -14797, 15327, };
const TfArray<1, int> tensor_dimension45 = { 1, { 8 } };
const TfArray<8, float> quant45_scale = { 8, { 9.2530033725779504e-05, 9.611411951482296e-05, 0.00011908957094419748, 0.00015457897097803652, 0.00010394187847850844, 0.00010311545338481665, 0.00013302161823958158, 0.00012781038822140545, } };
const TfArray<8, int> quant45_zero = { 8, { 0,0,0,0,0,0,0,0 } };
const TfLiteAffineQuantization quant45 = { (TfLiteFloatArray*)&quant45_scale, (TfLiteIntArray*)&quant45_zero, 0 };
const ALIGN(16) int8_t tensor_data46[48*1*1*8] = { 
  /* [0][0][][] */ -27,22,58,-11,-127,-63,-9,82, 
  /* [1][0][][] */ 30,107,-126,-48,-25,-70,-107,127, 
  /* [2][0][][] */ 106,-61,-18,39,-41,127,34,73, 
  /* [3][0][][] */ -93,26,8,-22,-127,77,19,-68, 
  /* [4][0][][] */ -22,32,20,-37,60,-127,69,6, 
  /* [5][0][][] */ -82,-127,-123,-7,60,121,21,9, 
  /* [6][0][][] */ -107,31,-16,60,-127,93,13,-61, 
  /* [7][0][][] */ -29,3,77,127,-28,-35,50,-11, 
  /* [8][0][][] */ 0,127,78,8,5,14,-92,13, 
  /* [9][0][][] */ -70,84,73,-39,-12,56,-122,-127, 
  /* [10][0][][] */ 80,-11,6,-10,127,-4,-126,103, 
  /* [11][0][][] */ -10,-82,80,127,-16,20,-72,23, 
  /* [12][0][][] */ 61,-54,80,-21,108,-127,-1,90, 
  /* [13][0][][] */ -10,-7,111,-75,43,-72,-127,27, 
  /* [14][0][][] */ -109,-15,110,-29,4,-127,27,104, 
  /* [15][0][][] */ -86,-35,-49,-35,127,101,13,-5, 
  /* [16][0][][] */ 36,14,26,23,-127,31,-31,-68, 
  /* [17][0][][] */ 106,92,-20,51,50,41,127,-46, 
  /* [18][0][][] */ 32,59,-19,-127,-17,-69,25,26, 
  /* [19][0][][] */ 55,60,14,49,-34,-63,127,43, 
  /* [20][0][][] */ 16,-16,-33,15,-38,127,58,12, 
  /* [21][0][][] */ 23,-31,-14,-127,-15,31,38,-25, 
  /* [22][0][][] */ -127,-101,-43,-7,54,99,88,27, 
  /* [23][0][][] */ -109,-50,-96,-47,-127,-33,103,-57, 
  /* [24][0][][] */ 127,35,49,108,55,-49,-18,49, 
  /* [25][0][][] */ -41,-13,8,-22,-1,-40,-127,-1, 
  /* [26][0][][] */ -24,68,-90,15,-22,127,79,11, 
  /* [27][0][][] */ 5,-106,74,103,-37,127,30,-39, 
  /* [28][0][][] */ -10,1,-83,99,104,-33,127,-66, 
  /* [29][0][][] */ 83,51,-29,50,-127,24,36,-11, 
  /* [30][0][][] */ 58,118,127,45,36,-64,-23,76, 
  /* [31][0][][] */ 127,9,-62,30,4,-22,106,-118, 
  /* [32][0][][] */ 31,-9,-24,-24,127,56,28,-17, 
  /* [33][0][][] */ 14,-86,11,-127,1,-38,2,-37, 
  /* [34][0][][] */ -94,-118,-127,-79,-32,35,65,-32, 
  /* [35][0][][] */ 127,33,-4,-17,64,107,2,79, 
  /* [36][0][][] */ -83,23,21,44,10,-127,-65,-38, 
  /* [37][0][][] */ 72,-127,-17,-32,120,-29,-119,-108, 
  /* [38][0][][] */ 19,127,-26,3,-6,20,-10,17, 
  /* [39][0][][] */ 30,-57,-61,78,127,-1,73,17, 
  /* [40][0][][] */ -36,-127,68,-56,116,-52,-116,-48, 
  /* [41][0][][] */ -65,31,127,-20,-101,-38,-2,-14, 
  /* [42][0][][] */ 16,62,-42,-64,14,-127,-4,46, 
  /* [43][0][][] */ -43,-109,-94,8,-127,41,30,-2, 
  /* [44][0][][] */ -19,-56,61,-11,-15,-49,-127,60, 
  /* [45][0][][] */ -28,127,86,-34,11,-32,15,-34, 
  /* [46][0][][] */ -84,66,61,12,-97,99,22,127, 
  /* [47][0][][] */ 104,38,13,127,-19,-29,-3,-41, 
};
const TfArray<4, int> tensor_dimension46 = { 4, { 48,1,1,8 } };
const TfArray<48, float> quant46_scale = { 48, { 0.0020289800595492125, 0.001783852931112051, 0.0025141804944723845, 0.0010676350211724639, 0.0010800905292853713, 0.0012411446077749133, 0.0019083111546933651, 0.0032908131834119558, 0.0018682181835174561, 0.0020786074455827475, 0.0017421777592971921, 0.002883541164919734, 0.0016083099180832505, 0.0020693703554570675, 0.0018233056180179119, 0.0025899778120219707, 0.0013555486220866442, 0.0021732801105827093, 0.0017942714039236307, 0.0028380684088915586, 0.0041248551569879055, 0.003395389998331666, 0.002019855659455061, 0.0018313742475584149, 0.0011718836612999439, 0.0032374490983784199, 0.0030454411171376705, 0.0023850977886468172, 0.0026398531626909971, 0.0027081423904746771, 0.0019650342874228954, 0.0023831282742321491, 0.0027572393883019686, 0.0018119747983291745, 0.0010738907149061561, 0.0028710768092423677, 0.0037745195440948009, 0.0020030359737575054, 0.0036777877248823643, 0.0027553988620638847, 0.0013551880838349462, 0.0028745420277118683, 0.0018084561452269554, 0.00054777238983660936, 0.0022725244052708149, 0.0016208271263167262, 0.0018805866129696369, 0.002715323818847537, } };
const TfArray<48, int> quant46_zero = { 48, { 0,0,0,0,0,0,0,0,0,0,0,0,0,0,0,0,0,0,0,0,0,0,0,0,0,0,0,0,0,0,0,0,0,0,0,0,0,0,0,0,0,0,0,0,0,0,0,0 } };
const TfLiteAffineQuantization quant46 = { (TfLiteFloatArray*)&quant46_scale, (TfLiteIntArray*)&quant46_zero, 0 };
const ALIGN(16) int32_t tensor_data47[48] = { 7738, 6764, 4149, 17758, 18861, 14294, 5017, 450, 9630, 2992, 7591, 2438, 7295, 8064, 4812, 1407, 13625, 5889, 10044, 2979, 645, -3061, 5290, 7089, 15816, 5291, -1261, -3034, 2761, 921, 5762, 3958, 5235, 10073, 19026, 1887, 1019, 170, 834, 1445, 12804, 216, 9862, 45190, 7308, 10712, 6400, 205, };
const TfArray<1, int> tensor_dimension47 = { 1, { 48 } };
const TfArray<48, float> quant47_scale = { 48, { 9.5405150204896927e-05, 8.3878971054218709e-05, 0.00011821987573057413, 5.0201517296954989e-05, 5.0787191867129877e-05, 5.8360154071124271e-05, 8.973114745458588e-05, 0.00015473811072297394, 8.7845925008878112e-05, 9.7738695330917835e-05, 8.1919351941905916e-05, 0.00013558767386712134, 7.5624717283062637e-05, 9.7304349765181541e-05, 8.5734085587318987e-05, 0.0001217839599121362, 6.3739571487531066e-05, 0.00010219031537417322, 8.436886128038168e-05, 0.00013344948820304126, 0.00019395578419789672, 0.00015965543570928276, 9.4976108812261373e-05, 8.6113483121152967e-05, 5.5103417253121734e-05, 0.00015222886577248573, 0.00014320040645543486, 0.00011215025006094947, 0.00012412916112225503, 0.00012734020128846169, 9.2398338892962784e-05, 0.00011205763439647853, 0.00012964880443178117, 8.5201296315062791e-05, 5.0495669711381197e-05, 0.00013500158092938364, 0.00017748257960192859, 9.4185226771514863e-05, 0.00017293413111474365, 0.00012956226419191808, 6.3722618506290019e-05, 0.00013516451872419566, 8.503584103891626e-05, 2.5756935428944416e-05, 0.00010685690358513966, 7.6213298598304391e-05, 8.8427506852895021e-05, 0.00012767787848133594, } };
const TfArray<48, int> quant47_zero = { 48, { 0,0,0,0,0,0,0,0,0,0,0,0,0,0,0,0,0,0,0,0,0,0,0,0,0,0,0,0,0,0,0,0,0,0,0,0,0,0,0,0,0,0,0,0,0,0,0,0 } };
const TfLiteAffineQuantization quant47 = { (TfLiteFloatArray*)&quant47_scale, (TfLiteIntArray*)&quant47_zero, 0 };
const ALIGN(16) int8_t tensor_data48[1*3*3*48] = { 
  /* [0][0][][] */ 15,-10,-7,-23,-25,-65,-10,-52,-82,13,-39,-59,-52,-8,34,8,-13,-66,44,-13,33,18,-1,-52,105,-24,-116,18,1,44,-38,32,-5,-43,-46,29,1,-33,12,69,-102,-46,2,10,-8,56,-8,-10, 127,-47,63,14,6,-127,-57,22,-127,-127,-100,1,-127,-22,74,41,10,-78,-24,-16,71,3,49,46,-36,-54,24,-6,16,-53,52,-70,-55,-26,-9,-42,-28,-50,-26,-24,-24,53,38,-127,-6,10,-13,-91, 3,-5,-8,20,-9,-58,-17,-48,-88,7,-39,-55,-43,-7,48,3,-27,-57,-14,-4,11,13,7,-37,-38,-6,1,17,9,28,23,16,-7,-51,-48,19,-4,30,12,63,0,-37,-29,1,-13,-53,-3,64, 
  /* [0][1][][] */ 6,-51,96,-111,-4,7,32,37,58,-51,-127,14,13,-4,93,-2,-127,64,-18,7,25,23,-17,80,0,-38,-64,-13,0,35,-12,-35,-80,-54,-12,127,-2,-98,10,27,-127,33,-22,-67,13,127,-2,-71, -100,-127,-85,-21,127,74,127,-94,-94,-1,-23,-127,101,-127,-127,127,-26,-127,2,127,-127,-127,58,127,-25,-127,47,127,127,127,-106,-127,-96,127,127,-50,127,33,13,6,33,127,127,26,127,-71,127,-47, 6,15,127,127,-18,46,19,69,96,-20,-100,-10,21,28,73,-35,-100,59,18,11,-41,40,-10,92,3,-6,127,-25,-11,-5,28,-34,-51,-69,-20,-73,-14,-127,25,40,16,19,-32,-56,-37,-86,-17,127, 
  /* [0][2][][] */ -9,-4,14,-7,-50,22,-2,36,7,-22,19,-69,9,12,56,5,11,-8,-125,4,28,20,-32,-32,127,29,-43,5,-2,-1,-54,-45,103,-87,-42,-34,36,-44,59,-30,-77,2,-38,-5,-26,65,-13,20, -12,-12,53,-8,-3,87,57,-127,65,-31,-104,5,114,38,127,-14,59,-88,-11,15,-10,80,127,87,13,-66,86,-22,4,67,127,-65,127,-59,-26,4,34,-78,-127,-127,-5,44,-46,-110,-35,23,-50,-48, 0,-1,43,20,-29,16,-20,75,-6,-61,-1,-61,19,1,61,9,5,-1,127,8,-92,-10,-45,-27,-101,25,-31,-6,-8,-20,36,-19,68,-61,-44,18,27,-65,50,12,31,-15,-24,-25,-40,-67,-2,19, 
};
const TfArray<4, int> tensor_dimension48 = { 4, { 1,3,3,48 } };
const TfArray<48, float> quant48_scale = { 48, { 0.012799304910004139, 0.0048058549873530865, 0.0038305425550788641, 0.010019060224294662, 0.02022203616797924, 0.0077460627071559429, 0.0084449518471956253, 0.010158216580748558, 0.0067000449635088444, 0.0054761678911745548, 0.005077076144516468, 0.0066489935852587223, 0.0052449102513492107, 0.015625409781932831, 0.0045977053232491016, 0.012239088304340839, 0.0065259803086519241, 0.0059012183919548988, 0.011373098008334637, 0.0090106381103396416, 0.0086457645520567894, 0.028815180063247681, 0.010221862234175205, 0.0056030559353530407, 0.0091207502409815788, 0.0074496404267847538, 0.012388719245791435, 0.01443376112729311, 0.010711008682847023, 0.0068903756327927113, 0.0095618888735771179, 0.0044898181222379208, 0.010165913961827755, 0.0086886221542954445, 0.0090318601578474045, 0.010234938003122807, 0.0068753296509385109, 0.0032013317104429007, 0.014228411018848419, 0.0079269567504525185, 0.0051860087551176548, 0.0062900884076952934, 0.012252590619027615, 0.012590270489454269, 0.01626051589846611, 0.0071680028922855854, 0.016960736364126205, 0.0089892856776714325, } };
const TfArray<48, int> quant48_zero = { 48, { 0,0,0,0,0,0,0,0,0,0,0,0,0,0,0,0,0,0,0,0,0,0,0,0,0,0,0,0,0,0,0,0,0,0,0,0,0,0,0,0,0,0,0,0,0,0,0,0 } };
const TfLiteAffineQuantization quant48 = { (TfLiteFloatArray*)&quant48_scale, (TfLiteIntArray*)&quant48_zero, 3 };
const ALIGN(16) int32_t tensor_data49[48] = { -1323, 22633, 6843, -1351, -1462, 511, -2748, 133, 8850, 18231, 18442, 9962, 6024, 4413, -10672, -6215, 20954, 15447, -1432, -5629, -138, 23, -11689, -21773, -2770, 20146, -3853, 1998, -4673, -6501, -226, 21695, -2827, 10613, 22306, -1551, -4568, 25917, -1262, -2210, 20505, -1606, 2133, 23291, -3996, -1198, -3977, -1373, };
const TfArray<1, int> tensor_dimension49 = { 1, { 48 } };
